abandon -0.227294 -0.13602 -0.124368 0.334887 0.274061 -0.169903 0.0466599 0.0296604 -0.107877 0.118843 0.368035 -0.769964 0.539956 -0.655163 0.437751 -0.701544 -0.132679 0.523009 -0.49662 -0.139942 -0.839456 -0.0949923 0.276069 -0.102266 -0.269211 -0.646298 -0.336455 0.401833 -0.392681 -0.0542705 0.522366 0.264173 0.516279 -1.01661 -0.123236 0.198326 -0.368997 0.274873 -0.214918 -0.280906 0.815998 -0.28237 0.192635 0.0970883 0.514269 -0.502022 -0.257596 0.420529 -0.638669 -0.327759 -0.393373 -0.254798 0.00758602 0.0391402 -0.396172 -0.597897 -0.690312 -0.589759 -0.611631 0.138102 0.628058 -0.0825094 0.008663 0.232889 -0.231645 -0.220308 -0.322064 -0.240148 -0.374839 0.136715 0.614047 0.7298 0.136575 -0.477347 -0.0831106 -0.346152 0.587342 0.341888 -0.328522 0.552578
abandonment 0.138635 0.590214 -0.579488 -0.608737 0.171925 0.2339 -0.0443248 0.119225 0.707944 -0.718644 -0.584205 -0.391955 0.681562 1.43381 -0.0492225 -0.255231 -0.434051 -0.555088 0.0733067 0.552605 0.370728 0.468222 0.862997 -0.259961 0.15988 0.286351 -0.601407 0.0913951 -0.157742 0.281879 -0.640723 0.724186 -0.215782 -0.330208 -0.135784 0.181397 0.953972 0.00962621 -0.557587 1.03684 -0.673313 0.895485 -0.435622 -0.0609149 0.122393 -0.279158 -0.668141 0.662669 -0.32341 -0.379254 0.265882 0.370042 0.321231 0.588399 0.0983476 -0.277284 0.24166 -0.0323204 -0.174576 -0.0420707 0.315258 -0.0360879 0.142411 -1.09629 0.722718 -0.705184 -0.845466 0.00301386 -0.402679 0.134463 -0.0991793 -0.715114 -0.312284 -0.302566 0.353369 -0.0258569 -0.139498 -0.584217 -0.664013 -0.28456
abbreviate 0.994319 -1.4209 -0.762966 0.668489 -0.373018 -0.0236321 0.647411 -0.30387 -0.210003 -0.443001 -0.0296434 -0.244006 -0.331496 -0.688533 -0.586481 -0.589276 -0.264023 0.491864 0.708545 0.436864 -0.833748 1.32187 -0.898695 0.0653047 -0.394042 0.511283 0.253922 -0.700453 -0.659005 -1.06816 0.0345068 0.218763 -0.126472 0.265912 0.240258 -0.882759 0.00415838 -0.388812 0.971126 -0.361595 -0.948127 0.823187 0.883164 -0.303975 0.267392 0.628026 -0.616501 -0.664194 -0.556124 0.444931 -0.776156 -0.456975 0.00431868 0.01125 -0.111026 -0.697996 0.00243162 -0.73223 -0.192012 0.885393 0.76888 -0.686906 -0.237233 -0.308062 0.0872106 -0.486843 0.09472 -0.581781 -0.677861 -0.745663 0.416191 0.866556 0.0848608 0.898311 0.127979 0.965891 1.24643 0.904869 0.0264947 -0.615498
abdomen 0.995387 -0.809643 -0.345521 0.339349 -0.976723 0.144967 -0.0282312 0.894535 0.248208 -0.11584 -0.427315 1.00394 0.00814745 -0.704021 0.389172 0.329287 -0.58568 0.752581 -0.850763 0.575188 0.855489 -0.464139 -0.204298 0.223689 0.243955 0.244679 0.366273 0.39547 -0.307161 -0.336685 -0.354459 -0.742439 -0.573354 -0.704254 0.712277 -1.30923 -0.476087 -0.097671 0.314736 0.401607 -0.0127648 0.413787 0.754617 0.154833 0.673516 -0.422798 0.625981 -0.205341 -0.402651 0.0945959 -0.68931 -0.681542 -0.236991 0.935129 0.913679 0.368276 0.640838 0.31613 -0.377425 0.407439 -1.75229 -0.689382 -0.503546 0.0159406 0.544763 0.394542 -0.438425 -0.387656 -0.0649425 -0.156643 -1.2093 -0.192076 1.0426 -0.605358 -0.141414 0.703237 0.257494 -0.402193 -0.30825 0.331121
ability 0.23492 -0.342548 0.329264 0.117349 0.353633 0.267802 0.143522 0.352063 0.142245 -0.050887 0.553187 -0.336955 0.952029 -0.339825 0.178803 0.422206 0.0109169 -0.375478 -0.234511 0.144007 0.133777 0.0276492 0.169576 0.239205 -0.528849 0.0722005 0.434195 -0.0856788 -0.40724 0.318043 -0.209042 0.943414 0.0983663 0.0275055 0.152036 -0.278843 0.222082 0.111644 0.514188 0.271003 0.290505 0.722672 0.0384789 0.399604 0.529097 -0.312405 -0.807995 -0.302295 -0.541006 -0.417078 0.078493 -0.135411 0.499658 0.224762 -0.208323 -0.0326468 -0.0322486 -0.0532634 -0.479747 0.0260503 0.440321 -0.323394 0.559744 0.0308536 0.589561 -0.245034 -0.422058 -0.0149599 -0.626763 -0.281887 0.0191171 0.124058 -0.46762 -0.357744 0.462068 0.00745809 -0.163211 0.328716 -0.293241 0.0782153
ablaze 1.16391 -0.547762 -0.677463 0.0937694 -1.07815 -0.20096 0.0633221 -0.367986 0.368816 0.168566 -1.6361 -0.393556 1.14581 -0.886366 0.689804 -0.139331 0.890874 -0.763717 -0.816817 -0.928877 0.217843 0.754311 -0.860936 -0.530324 -0.940264 -0.466276 -0.293517 -0.590301 0.39472 -0.827819 -0.138527 -1.11952 0.479661 0.169369 -1.15343 0.819616 0.585992 -0.266254 0.934682 0.0863288 0.733108 -0.866403 -0.137902 0.415084 0.273418 0.00834349 0.274102 -1.33502 0.202685 0.0289098 -2.04713 -0.867779 0.574789 -0.34707 0.838013 0.615922 0.111198 0.408164 -0.208288 -0.572858 -0.00690849 -1.31887 -0.0430579 -0.103034 0.331924 -0.200941 -0.543612 -1.01047 0.200419 -0.104839 0.0977888 0.334773 -0.0892948 -0.513718 -1.36443 0.58098 0.327388 -1.31841 0.160288 0.255603
abnormal -0.610825 -0.210486 -0.168354 -0.438849 -0.248239 -0.557698 0.0678308 -0.213825 -0.749212 -0.274556 0.868205 0.00178108 0.757566 0.103712 -0.597043 0.607508 0.402917 0.203576 -0.63678 -0.17963 0.000812247 -0.0413188 -0.00567043 -0.347043 0.0527096 0.473137 0.522691 0.671636 -0.240598 0.121321 -0.868886 -0.16735 -0.123042 -0.48321 0.606044 -0.358603 0.19473 0.326761 -0.00210054 -0.19352 -0.336057 0.106453 0.450225 -0.152135 0.503798 0.327628 -0.450023 -0.597753 -0.248197 -0.00336644 0.131857 0.115682 0.456497 -0.0526744 -0.566294 -0.385903 -0.212211 0.286961 -0.852081 1.30622 0.245332 -0.943171 -0.0744514 -0.421857 0.256206 -0.164914 -0.246086 0.548359 -0.856171 -0.0349748 -0.0558412 -0.0937984 -0.209057 0.284709 0.0484157 -0.407404 0.728753 0.130069 0.0302415 0.271603
abnormality 0.437808 -0.219007 -0.031654 -0.0938765 -1.40157 0.596272 -1.65455 0.104401 0.0513429 -0.560771 -0.761289 -0.541764 -0.299283 0.164331 0.30266 -0.577251 0.0826471 0.074285 0.992952 0.437078 -0.351368 0.59102 0.0289299 -0.807415 0.7239 0.32087 0.448196 1.06566 0.00963953 -0.595567 0.179927 0.172976 0.358977 0.564819 0.931419 -0.214287 0.954651 0.801434 0.721804 0.87646 -0.701394 1.07455 1.00777 -0.194554 -0.438644 0.119103 -0.130405 -0.0295685 0.0154054 0.407783 -0.408944 -1.1967 -1.00287 0.500614 -0.352969 -0.0728639 0.269756 -0.614758 -0.285273 -0.904699 -0.117586 -1.30559 -0.391478 -1.32929 0.309834 -0.384042 0.756865 -0.414389 0.0187866 0.0473675 0.0245638 -0.406604 -0.474783 -0.35253 0.599697 0.192702 0.313279 0.738905 0.0188597 0.225176
abortion 0.234711 -0.274232 0.396246 -0.57304 -0.468578 -0.0842593 0.324588 0.19471 0.204392 -0.712759 -0.0867975 -0.633908 -0.119164 -0.829609 -1.01538 0.182248 0.746162 0.367255 -0.0890815 -0.0512695 -0.762508 0.454535 0.394681 -0.430799 -0.877667 0.111445 0.00731967 -0.447744 -0.166807 0.614658 0.762665 0.746711 0.172671 0.637994 -0.531946 -0.16273 0.152739 -0.362683 0.0116 0.23015 -0.0318185 -0.0305596 -0.41988 -0.768285 -0.667116 -0.0638832 0.0289602 -0.232554 0.272546 -0.657786 -0.428948 -0.132382 0.616261 0.101723 0.313095 0.013758 0.456713 -0.465166 -0.0811799 0.345858 0.731807 -0.0718519 0.0113632 -0.0864677 -0.264754 -0.0338168 -1.3301 0.693594 -0.732668 -0.00960924 0.922445 -0.331579 -0.00112279 -1.23844 0.943552 0.614918 -0.801162 -1.03895 -0.624965 -0.24515
about 0.731686 0.0740533 0.762087 0.0828228 0.12911 0.167957 0.478756 0.697263 0.541254 0.439426 0.650584 0.517385 0.0291142 0.0928877 0.0855613 0.350354 0.528052 -0.219711 -0.289189 -0.22234 -0.0929574 -0.0768472 0.0597742 0.715233 -0.399709 -0.11024 0.914376 -0.36006 -0.432182 0.461373 0.484453 1.23957 -0.346936 0.108545 -0.724046 -0.00231224 -0.107893 -0.813064 -0.138959 1.19896 -0.0172919 0.788487 -0.126766 -0.0904644 -0.287299 0.0733728 0.341708 -0.275514 -0.86154 -0.287361 0.617935 -0.000117898 0.0321 0.917405 -0.299982 0.506873 -0.0406452 0.337154 -0.861192 -0.0425644 0.516452 -0.14984 0.481173 -0.236494 0.0920244 -0.140135 -0.336194 -0.711915 -0.581215 0.0728512 0.249087 0.337553 -0.0992167 -0.55553 -0.154487 -0.285277 -0.991307 0.557907 -0.318613 0.315603
abraham -0.610022 0.93951 0.74316 0.933633 0.81441 -0.186266 0.0260558 0.118336 0.476235 0.573733 0.414408 0.192113 -0.33588 -0.527666 0.610615 -1.01985 -0.684132 -0.188577 0.394192 0.490104 -0.285333 0.293989 0.366919 0.476484 -0.585397 0.603871 0.884281 0.137598 0.290844 0.805601 0.29806 0.965309 0.133795 -0.360597 0.0321663 0.604335 -0.0858751 -1.2967 -0.397235 0.570225 0.348647 0.577723 0.112876 0.108462 0.0307555 0.582695 0.315619 -0.463809 0.030666 -0.11877 -0.359524 -0.708105 -0.488759 -0.190202 0.0889035 -0.086573 1.084 -0.342752 0.0180571 -0.04308 0.49816 -1.97447 -0.0257981 -0.433239 0.0539746 0.30171 -0.431125 0.587692 -0.593455 0.0166643 -0.0209996 0.0439885 -1.3413 -0.494371 0.760339 -0.316701 -0.915649 -0.0849932 0.720766 -0.119104
absence 0.471695 -0.402154 0.0683942 0.355072 -0.604292 -0.528033 0.463633 0.629122 0.0930342 -0.0793554 0.239652 0.131212 0.660985 -0.498761 -0.341442 -0.164059 0.553886 0.00498512 0.0147612 0.0771927 0.0945682 0.341954 0.0398605 0.0305548 -0.0366965 -0.880305 0.17321 0.260978 -0.0820154 0.373751 -0.728476 0.424894 -0.383202 0.135708 -0.00799025 0.0412784 0.025416 -0.0689749 -0.361582 0.452126 -0.247281 0.208164 -0.291918 0.293674 -0.38757 -0.388443 -0.561701 -0.186736 -0.243445 0.00638124 -0.255306 0.237929 0.208008 0.335375 0.405839 -0.0270155 -0.0131813 0.29793 -0.528113 0.178858 0.536365 -0.773753 0.251233 0.0819469 0.306774 -0.5883 -0.445903 -0.154051 -0.340305 0.564327 -0.309779 -0.213131 0.0601923 -0.292646 -0.144258 -0.0298846 -0.285652 0.257683 -0.0898869 0.373316
absolute 0.949068 -0.099433 0.512093 -0.53661 0.428531 -0.0709704 0.226261 0.571728 0.58395 0.585571 0.0518215 0.609728 0.593477 0.882293 0.270629 1.18416 1.41421 0.602239 0.266343 -0.0410605 0.578168 -0.160423 0.543924 0.396665 0.0779583 -0.871024 1.05957 -0.293746 0.13676 1.17239 -0.413649 0.97648 0.162489 0.0199572 -0.743433 0.185848 -0.682171 -0.382337 0.911325 -0.346107 -0.247831 0.272718 0.725136 0.601586 -0.176627 -0.583351 -0.19079 -0.91839 -0.615163 -0.0533503 0.128734 -0.00955364 -0.486372 -0.270009 0.693167 0.102 0.401069 0.30068 -0.76555 0.814849 0.0412877 0.0584678 -0.116195 1.01215 1.23305 0.24459 0.0911026 0.454723 0.258114 0.446109 0.758552 -0.464975 -0.399913 -0.881064 -0.323583 -0.102395 0.0282981 0.752337 -0.370809 0.419526
absorb 0.502848 -0.188312 -0.190986 1.02442 0.783006 -0.0316678 -1.16883 -0.769255 0.311205 0.345486 -0.568771 0.59737 0.617558 -0.457551 0.630779 -0.057167 -0.425642 0.904835 -0.578451 -0.432392 -0.721397 0.0258876 -0.487875 -0.397819 -0.382739 0.239965 -0.817887 0.238042 -0.404496 -0.112594 -1.30623 0.0936312 -0.318283 -0.624687 -0.12538 -0.0936331 0.951066 0.47826 0.911788 0.0201352 -0.0738356 -0.00646062 0.319035 0.168872 0.0654299 0.582822 0.307028 -0.0274428 -1.15941 0.668994 0.0780366 -0.149829 -0.2998 -0.413054 0.566124 -0.240381 -0.231278 -0.520884 -0.763569 0.700859 0.368383 0.0722273 -0.699323 0.763684 0.134949 0.124569 0.241415 0.58243 -0.493841 -0.0956194 0.491122 -0.626195 -0.368864 -0.513682 0.441885 0.647369 -0.297454 0.190793 0.223076 0.834563
absorbing 0.217271 -0.284974 -0.283386 -0.737057 -0.390774 -0.89559 -0.84129 0.367322 0.0482798 0.476766 0.277175 0.161667 0.282538 0.718029 -0.698813 1.14909 0.13324 0.263674 -0.20145 0.311093 -0.146132 0.32708 0.394302 -0.104303 -0.420854 -1.22775 0.407148 0.388094 0.152081 -0.332719 0.643757 -0.902485 -0.462019 -0.147764 -0.272711 -0.612777 -0.00134349 0.180711 0.717407 0.176806 -0.292709 0.398452 -0.492858 -0.41024 1.13073 -0.460025 -1.03799 -0.92825 0.58774 0.0847614 0.567883 0.25511 -0.239341 -1.19797 -1.23021 -0.631075 0.113775 -0.327507 0.0308092 -0.734379 0.1278 -0.596621 0.67423 0.219744 0.0743791 -0.700918 0.480094 -0.0903812 0.273456 -0.879664 0.165789 -0.138019 0.261275 -0.512215 0.163815 0.721321 -0.195115 -0.300837 -0.136228 0.607875
abstract 0.860219 0.608453 0.0389613 0.0213923 0.122127 0.200371 0.266494 -0.214327 1.11109 -0.61064 0.219152 0.127272 -0.221105 0.100903 -0.0223912 0.639912 0.206019 -0.355583 -0.0901114 -0.3692 0.691536 -0.134121 0.0115722 -0.0524386 0.227731 -0.109081 -0.329292 0.368181 0.00729302 0.485707 -0.477199 0.755179 0.69127 -0.514913 0.168516 -0.0672533 0.155847 -0.486967 0.157932 0.751493 -0.499704 0.502638 0.427565 -0.230709 -0.476756 -0.48539 -0.503076 -0.766327 -0.906261 -0.463552 -0.867081 -0.197027 -0.0609648 0.262928 0.364218 0.673688 -0.164919 -0.285122 -0.36312 -0.601077 -0.0523459 -0.150119 -0.121272 1.04571 0.185395 0.575675 -0.235009 0.0629367 -0.190989 0.517372 0.463656 0.428742 -0.485035 -0.0876458 -0.700625 -0.265414 0.209597 0.569248 -0.0246397 0.469757
abundance -0.27271 -0.0132765 -0.123242 -0.247179 -0.0629809 -0.429718 -0.0598547 0.607685 0.139134 -0.333672 0.0597855 -0.0223547 0.503629 0.0447736 -0.327648 0.175413 0.219478 -0.132747 -0.210968 0.081326 0.0501685 -0.178379 -0.0677412 0.211004 0.384655 -0.155456 0.136408 -0.138843 -0.251377 -0.22859 0.279018 -0.220481 0.471296 0.188222 0.0251584 -0.313379 1.02152 0.242399 0.747026 0.341382 -0.0983736 0.294386 -0.39068 0.874296 -0.103161 0.243597 -0.0185427 -0.0135954 0.0322635 -0.262515 0.0128694 0.130867 0.07582 -0.058475 0.384286 -0.0989401 -0.680329 -0.20703 0.253977 -0.104997 0.404086 0.213008 0.437393 -0.0967183 0.34945 -0.678334 -0.768978 0.333588 -0.440871 -0.050003 -0.716919 0.0980336 -0.356786 0.0308396 -0.23222 -0.0585025 0.228978 0.0751106 -0.598295 -0.390202
abuse -0.0511286 -0.232677 0.413184 -0.619015 -0.0895498 -0.233594 0.0985494 0.0926052 0.397245 -0.422185 0.0144471 0.514726 0.983045 -0.114613 -0.00148566 -0.248771 -0.450727 -0.3462 -0.709272 0.031675 -0.356108 0.11137 0.510112 -0.108923 -0.549828 -0.0628883 -0.14923 -0.245871 0.277585 0.0175275 -0.189427 -0.122197 0.0663067 -0.208175 0.668088 -0.720112 0.706911 -0.399599 0.287846 0.123499 -0.12469 -0.286354 -0.546175 -0.0401209 -0.108315 -0.49314 -0.435333 0.0305368 -0.476749 -0.332653 0.497175 -0.343671 -0.0658286 0.150165 -0.0390652 0.26713 0.150597 -0.339706 -0.0971413 0.801433 0.894244 -0.189246 0.376503 0.312293 -0.270144 -1.10684 -0.41079 0.661832 -0.597909 -0.00539357 0.27666 -0.18792 -0.0533685 -0.160796 0.0392317 0.286955 0.255255 -0.228859 -0.0940037 -0.350304
accelerate 0.0544398 0.319416 0.393429 -0.0127285 0.185731 0.368925 1.11923 -0.970937 -0.580814 -0.143581 0.192545 -0.049737 -0.0865745 -0.522217 0.872898 0.344833 0.594747 0.658258 0.120695 0.286388 -0.594231 -0.0625535 1.17336 -0.309157 -0.516084 0.734394 0.232533 0.243734 0.596981 1.17427 0.473398 0.454758 -0.0665529 -1.09232 0.539838 0.231693 0.118345 0.502055 0.519822 -0.989827 -0.896058 0.0613646 0.24935 -0.0457279 0.177328 -1.31322 -0.626202 -0.561959 0.369632 0.457381 -0.16004 0.0771334 -0.277984 -0.150036 -0.623523 0.489063 -0.297558 -1.08614 0.669063 -0.213953 -0.304993 0.105458 -0.316856 -0.304204 0.503511 0.334563 0.333429 0.621795 -0.708277 0.172514 0.663629 0.726304 0.0802241 -0.0926015 0.765933 0.440147 0.799819 0.646631 0.00370438 0.238341
accept -0.449667 -0.0937982 0.358264 -0.0379533 0.151953 0.314892 0.0502356 0.434201 -0.250202 -0.0597566 0.816369 -0.537078 0.181249 -0.947344 0.682664 -0.151181 -0.20114 -0.452238 -0.0368266 -0.328355 0.0259933 0.588215 0.265811 0.191959 -0.81101 -0.688125 0.3888 0.101352 0.267735 0.643637 0.252886 0.978601 -0.162936 0.0169889 -0.595925 -0.081937 0.0946767 -0.0090819 0.269578 0.07053 0.290826 -0.114557 0.358696 0.387683 0.254957 -0.329091 -0.699066 -0.196864 0.137292 0.236845 0.185301 0.171166 0.153388 0.0218364 -0.090432 0.108349 0.0820283 -0.0615215 -0.180124 0.0750829 -0.448764 0.016132 0.0834907 0.0892351 0.424549 -0.152258 -0.305967 -0.217993 -0.999871 0.152124 0.1159 0.240731 -0.19448 -0.220332 0.601608 0.251851 -0.569407 0.368716 -0.154395 0.191923
acceptable 0.199879 -0.0769219 0.383041 -0.586466 0.0831871 -0.00316498 -0.301083 0.203916 -0.68651 0.184929 0.34889 -0.0264597 0.929561 -0.824633 0.182936 -0.0169732 -0.139813 0.206625 -0.1913 0.131885 -0.332278 0.253763 0.361213 -0.180365 0.110738 0.140569 0.0406203 0.134932 -0.289861 -0.646375 0.062662 -0.0228049 0.719278 0.599223 -0.076176 -0.389957 0.388502 -0.430222 0.340711 -0.181646 0.271501 0.628183 0.0656515 0.143506 -0.107405 0.485333 -0.521215 0.297513 -0.181825 -0.169524 -0.487472 0.296592 0.264773 0.487401 0.293819 0.839715 -0.222227 0.386014 -0.449826 -0.246488 -0.124128 0.452669 0.0752651 -0.610297 -0.0828669 -0.392599 0.367023 1.03453 -0.638153 0.0477955 1.26839 -0.128349 0.0422528 -0.470223 -0.872976 0.206909 -0.0751271 -0.238186 -0.0463288 -0.00945878
acceptance 0.129502 -0.0445449 0.276201 -0.196816 -0.721491 -0.588611 -0.391022 -0.0770707 -0.299413 0.269901 -0.0747946 0.631671 -0.0301299 -0.391633 -0.152757 0.364967 -0.862646 0.50733 -0.165287 0.239435 0.00681518 0.0842544 0.073695 0.253277 0.123013 -0.309888 0.767637 -0.151447 -0.0503983 0.628141 -0.703575 0.226911 0.150008 -0.56681 0.107605 -0.32753 -0.726201 0.276378 0.348495 -0.0418795 0.246609 0.315984 -0.164815 -0.0559648 -0.353942 -0.339149 -0.80292 0.230528 -0.206252 -0.0291832 -0.535256 -0.517828 0.718358 0.292533 -0.284643 0.11201 -0.393519 0.61074 -0.294939 -0.739308 0.251494 -0.398247 0.824199 -0.187837 0.222341 -0.20244 -0.105048 -0.120982 -0.00126463 -0.324932 0.176883 -0.136755 -0.167459 -0.585719 0.128885 0.10119 0.297023 0.205601 -0.831578 -0.0328922
access -0.0354092 0.108554 0.403491 -0.397619 -0.532448 0.0212789 -0.268529 0.55863 -0.509794 0.091429 0.27741 -0.191167 0.511296 0.0123596 0.0699227 0.321705 0.150337 -0.406655 -0.253858 0.128712 0.261643 0.362317 -0.345484 0.3108 0.0880846 0.163316 0.267938 -0.505314 0.110422 1.12827 -0.157999 0.176803 -0.18223 0.181385 -0.296764 -0.72032 -0.0958403 -0.273175 0.86887 0.351169 0.4339 0.580716 -0.0531846 -0.162273 0.38624 -0.171895 -0.645441 -0.809392 -0.29682 -0.577891 -0.120574 0.210019 0.956157 0.219685 -0.368025 0.147548 -0.780656 -0.977036 -0.456714 -0.233047 0.33778 0.311556 0.235807 -0.108938 -0.38585 0.00757707 -0.378201 -0.491085 -0.222445 -0.000959381 0.350353 0.363873 -0.00402641 -0.258855 0.278413 0.240773 -0.518066 0.389535 0.269791 0.0891838
accessible -0.0372541 -0.31772 0.292481 -0.079252 -0.185043 0.301158 -1.03026 0.499169 -0.469077 -0.335558 -0.481149 0.12477 0.743465 -0.147424 -0.117965 0.341462 0.0459524 0.460885 -0.869899 -0.154228 0.359952 -0.405631 -0.127129 0.55407 0.110597 -0.218648 0.152708 -0.163174 0.254283 0.491619 -0.0915839 -0.155165 -0.413595 -0.572423 -0.653953 -0.731504 0.186732 -0.29361 0.441456 0.797146 0.409423 0.262606 -0.482908 0.0136666 -0.184205 0.321664 -0.822861 -0.874095 -0.400348 -0.488907 -0.548009 -0.0899281 0.141556 0.43984 -0.0350665 -0.182965 -0.0340948 -0.361583 -0.913127 0.0126908 -0.00398951 0.0768943 0.448906 0.0885139 -0.339908 -0.135457 -0.265803 0.022553 -0.565585 -0.752555 0.172289 -0.336694 0.66393 0.382428 0.437404 0.581125 -0.172209 0.467312 0.411675 -0.490931
accident 0.460874 0.315918 0.992688 0.582507 0.122866 0.564323 0.353992 0.0866712 -0.181777 0.562328 -0.677168 0.774055 -0.961754 -0.953388 0.481274 -0.377456 0.359018 0.206696 -0.722146 0.268137 0.908349 -0.231768 -0.108623 -0.0456481 0.0148754 0.510779 -0.449955 -0.20144 0.521478 -0.610407 0.611025 0.29072 -0.392882 -0.1513 -0.468877 0.0818264 -0.965698 -0.181571 0.528901 0.0219851 -0.0826971 -0.00567672 -1.39737 0.457042 -0.068181 0.151048 -0.432387 -1.29745 -0.48722 -1.33147 -0.119089 -0.258584 0.731777 0.709543 0.108619 1.23366 0.117238 -0.1713 0.476618 -0.702483 0.580464 -0.1323 0.311582 0.128855 -0.206689 -0.265473 0.134529 -0.302367 0.0131832 0.642861 0.536048 -0.105951 0.614714 0.575093 0.323308 0.0294608 -0.339165 0.207267 0.172485 0.771618
acclaim -0.664501 -0.330539 -0.306471 0.392029 0.32243 0.224635 -0.28116 -0.721381 0.350257 0.654593 0.412384 0.17158 0.465762 0.335462 -0.0839042 -0.110908 -0.810345 -1.13177 -0.487119 0.552286 0.306641 -0.122888 -0.0923807 0.415544 0.784805 -0.0287186 0.191525 -0.484185 -0.11242 -0.141101 0.16196 0.0614525 -0.287193 0.0366367 0.249603 0.262793 1.4014 0.459321 0.599774 0.179055 0.0818632 -0.00895806 -0.240748 -0.445315 0.262151 -0.125918 0.43321 1.12119 -0.49668 -0.489754 -0.119626 -0.174746 0.540874 -0.173624 0.743493 0.435667 -0.919121 0.898444 -0.0274029 0.0660886 0.0561236 -0.841438 -0.128755 -0.181924 -0.357437 0.147143 -0.266697 -0.957172 -0.330482 1.15545 0.56499 0.244151 -0.279739 -1.13108 0.128171 -0.87276 -0.620818 0.0237885 -1.00748 -0.27412
accommodation -0.825353 0.227796 -0.621784 -0.293933 -0.62135 0.617226 0.155235 0.868915 -0.147471 -0.387542 -0.421742 -0.685434 0.49528 0.251562 -0.0774138 -0.186328 -1.03308 -0.465563 0.315805 0.390003 0.530656 0.393494 -0.134605 -0.327749 -0.472037 -0.775365 -0.479063 -0.193998 0.245098 0.754374 -0.736271 -0.461189 0.32081 0.0555145 -0.122295 -0.656691 0.264064 0.341505 0.585191 0.320329 -0.916173 0.0851392 0.171508 0.32552 0.0857968 0.431307 -0.0597676 -0.723483 -0.136227 0.230251 0.0379333 0.859733 0.158341 -0.105111 -0.169628 -0.205298 0.097118 0.299782 -1.16776 0.415451 -0.451672 -0.158361 -0.218793 -0.173799 0.60458 -0.915563 0.286604 -0.0287353 -0.360079 -0.0864239 -0.519337 0.0826844 0.274881 0.0734303 -0.068734 0.515191 0.145043 0.847379 -0.201891 -0.193484
accomplish 0.229107 0.148608 0.523196 -0.244722 -0.00840956 -0.0542754 -0.631363 -0.37186 -0.110091 -0.0402212 0.673199 -0.122712 0.804453 -0.0457973 0.234067 -0.0587805 -0.827264 -0.139271 -0.112227 -0.685679 0.45157 0.201151 0.652848 0.00615632 -0.54913 0.411829 0.0736385 -0.38406 -0.407637 -0.105124 -0.266192 0.0636842 0.351156 0.169839 0.547991 -0.37887 -0.148932 0.688422 0.384097 0.0223722 -0.299533 0.125427 -0.33478 0.306693 0.346564 -0.586306 -0.686095 -0.0136405 -0.0171833 -0.273104 -0.283926 0.0374952 0.125438 0.341034 -0.222545 -0.390436 -0.0656816 0.483046 -0.01536 0.209858 0.0766631 -0.522821 0.305446 0.32876 0.622457 0.40871 -0.241356 -0.136316 -0.171601 0.467491 0.195378 -0.113445 -0.794986 -0.335784 0.669722 0.524979 -0.601351 0.295894 -0.11883 -0.104947
accomplished 0.36229 0.564647 -0.15586 0.487111 -0.395294 -0.264974 0.648121 0.412853 -0.303573 0.0861414 -0.266159 -0.386815 0.683587 0.0498246 0.167167 0.273651 0.404727 -0.297789 -0.420541 0.545735 0.233845 0.179054 0.193505 -0.647505 -0.0897411 -0.00512111 0.177422 -0.0748138 0.873937 0.271478 -0.172747 0.129741 0.0565152 -0.0295003 -0.490498 -0.313632 -0.0259504 0.0522899 -0.105971 -0.123286 -0.117496 0.242965 0.237455 0.595524 0.333567 -0.448887 -0.0940763 0.280566 0.0274915 -0.106416 -0.376443 -0.336682 0.564011 -0.106612 0.313589 -0.261933 0.340928 -0.321934 -0.261236 -0.470903 0.47704 -0.669078 -0.138117 -0.624211 -0.0694951 0.0191779 0.100265 0.5755 -0.178383 0.411478 0.330233 0.519074 -0.262975 0.164461 0.197518 -0.62083 -0.884516 0.0289672 -0.851193 1.07658
accomplishments 1.30514 0.449804 -0.0618038 0.416088 -0.385403 -0.084686 0.0573783 -0.523434 -0.391176 0.327716 0.277476 -0.428539 -0.372822 -0.77735 0.717432 0.144579 0.286651 -0.0151809 -0.507117 0.772399 -0.349559 0.526867 0.0649409 -0.428132 1.15878 0.697682 0.372863 0.835434 -0.183148 0.0374711 -0.802422 -0.269956 -0.288062 -0.785953 -0.206918 0.0258991 -0.258948 1.28882 -0.219767 -0.724575 1.29055 -0.28674 0.587004 -0.123709 0.515126 1.06862 -0.175789 1.03166 0.884472 0.501253 -0.568072 0.117348 -0.304126 -0.0333407 -0.501961 -0.235231 -0.328501 0.161934 -0.236032 0.813002 -0.243285 -0.0779703 -0.0830366 0.352926 -0.0901257 0.0873548 -1.3269 -0.414572 -0.197865 0.61236 -0.176483 0.133646 0.363139 0.318333 0.539942 0.249116 -0.285075 0.0807482 -1.15104 0.0413207
accordance -0.067668 -0.123837 0.396772 0.204408 0.137301 0.162501 0.170314 -0.188654 -0.370147 -0.0720891 0.480316 -0.0800124 0.361626 0.169067 -0.00327202 -0.240374 -0.139674 -0.425672 -0.0883428 -0.661347 -0.133449 0.251219 0.0699098 0.104811 0.30772 -0.404522 0.63879 -0.103062 -0.6701 0.159629 -0.234592 0.398373 0.322065 -0.648794 0.157194 -0.0862143 0.126557 -0.116927 0.122281 0.112687 -0.325201 0.228822 0.159798 -0.363176 0.252172 -0.280202 -0.0791071 -0.104645 0.242552 -0.710855 -0.58476 -0.667639 0.0353091 0.146105 -0.331334 0.258191 0.339305 -0.203913 -0.386973 0.202598 0.131565 -1.06339 0.230366 -0.0434316 0.217039 0.0485132 -0.0882442 -0.431889 -0.0790808 -0.409803 0.057637 0.767033 0.183978 0.0357734 0.162105 0.0819063 -0.291592 0.024389 0.33517 -0.527102
account 0.533145 0.0394319 0.490619 0.144266 0.0142516 -0.388506 0.367637 0.408858 0.235664 0.223608 0.524861 -0.431485 0.501327 -0.187445 -0.123767 0.213001 -0.294725 -0.0935834 -0.477233 -0.300836 -0.0403728 -0.310755 0.31199 0.610752 0.240996 -0.355342 0.562644 0.0382907 -0.174911 0.299568 0.17345 0.97042 0.27525 -0.257972 0.0653229 0.287817 -0.485664 -0.252478 -0.266322 0.513324 0.0199573 0.511048 0.279128 -0.225305 -0.112799 -0.00357454 0.0525009 -0.38096 -0.0832149 -0.170625 0.5584 -0.161532 -0.0329717 0.461308 -0.143854 0.408861 -0.134691 0.37523 -0.275774 0.0187466 0.284918 -0.527837 0.0664244 -0.153273 0.190245 -0.543118 -0.00492344 -0.343328 -0.634219 0.205431 0.0919444 -0.0661453 -0.472048 -0.407392 -0.417329 -0.121018 -0.60873 0.280505 0.0883463 0.163242
achieve -0.149421 -0.397853 0.0207348 0.223591 0.237551 -0.0320472 -0.679196 0.500714 -0.129382 -0.494988 0.303336 0.116874 0.966435 0.0660902 0.580007 0.356979 0.173611 -0.362175 -0.819481 -0.115039 0.181346 0.209826 0.110845 0.0955261 -0.0975691 -0.319938 0.402689 0.214165 0.348855 0.508516 0.103553 0.76384 -0.0892587 -0.0114916 0.385933 -0.572852 -0.0850174 -0.341748 0.565851 0.0440576 -0.38083 0.0738322 -0.496225 0.889431 -0.0981552 -1.05315 -0.157174 -0.0666822 -0.827401 -0.570459 -0.480457 -0.277439 0.74552 0.0829843 0.403008 0.493501 0.0236692 -0.0569198 -0.346585 0.37976 -0.182943 -0.117569 -0.072224 0.218074 0.426736 -0.00142092 0.00429154 -0.0965657 -0.619815 0.11445 0.719845 0.388274 0.339532 -0.48526 -0.455169 0.144705 -0.178139 0.308265 0.215694 0.664896
acknowledge -0.645767 -0.383341 -0.49929 0.561694 0.234021 -0.134706 -0.471551 0.157024 -0.301658 -0.271203 0.808087 0.388829 0.863208 0.276313 -0.202942 0.0605225 -0.0328126 -0.245501 0.385882 0.0544438 -0.452552 0.707346 0.0413194 0.266747 -0.0521789 -0.299321 -0.234696 0.918531 -0.0817842 0.868337 -0.00753811 -0.348787 -0.444761 0.549796 -0.681333 -0.796014 -0.222804 0.241538 0.0181986 0.169215 0.0960595 -0.425269 0.213822 0.359865 0.677279 0.405865 -0.473063 0.23763 0.43623 0.114372 -0.0503196 0.600601 -0.00358382 -0.0246865 0.324286 1.43772 -0.153039 -0.812821 0.0732494 -0.0189064 0.499286 0.396328 0.187802 0.256602 0.582854 -0.553469 0.778205 -0.105593 -0.665632 -0.952305 -0.0672063 -0.499632 0.848102 0.406397 0.415477 -0.0446459 -0.405292 0.0550164 -0.183619 0.115964
acknowledgement 0.598161 -0.253841 0.452494 1.09454 0.774057 -0.432069 -0.95949 0.119709 -0.582833 -0.733053 -0.258433 -0.462989 0.142377 -1.01943 0.0394655 0.426713 0.834599 0.0453122 0.15598 -0.258673 -0.221015 -0.656914 0.0982244 -1.2743 0.193454 -0.578895 -1.00138 0.449786 -0.79682 0.470446 0.634603 0.547849 0.370676 -0.40262 -0.294661 0.409661 0.212469 0.25546 0.831261 0.752572 0.360664 0.533273 -0.225614 0.135406 0.952815 -0.567802 0.397356 -0.454193 0.992993 0.960398 0.493691 -0.832087 -0.657287 -0.458155 0.744589 -0.202223 -0.339306 0.0749412 0.570143 0.707725 -0.161547 -0.926976 0.758241 0.129469 0.318187 0.893181 -0.171415 -0.444061 -0.233508 -0.217342 0.765673 -0.125636 0.917653 -0.143815 0.6198 0.801164 -0.432479 -0.0243243 0.888888 0.661244
acoustic 0.660095 -0.1593 0.0841129 -0.729994 0.363892 0.0437986 0.788953 0.242372 -0.00641521 0.459267 -0.0826585 0.530485 0.59156 0.725434 0.315809 0.509811 1.50622 0.794736 0.270499 0.144631 -0.84718 -0.587503 0.0255694 -0.724578 0.665373 -0.093324 -0.0502733 -0.235096 0.105705 0.694189 -0.773007 0.0378743 -0.986173 -0.226288 0.898071 0.0505449 1.1769 0.450157 0.247534 -0.138729 -0.402875 0.73254 -0.944797 0.652344 0.583009 0.697064 -0.117351 -0.257383 -0.153399 0.0978012 0.329946 -1.32612 0.215913 -0.413597 0.475501 0.260008 0.274958 -0.401502 -0.366869 0.477627 0.168316 -0.14978 -0.447805 -0.12921 -0.19667 -0.743109 1.49665 0.51004 -0.130489 -0.184617 0.434708 -0.593042 0.468101 -0.897663 -0.0838277 0.610871 -0.310056 0.531752 0.2583 -0.43227
acoustical 0.394297 0.0519577 0.374109 -0.247911 0.367031 0.457808 0.635245 0.207679 0.585538 -0.798816 0.450243 -0.434582 0.667751 0.258566 0.453086 1.05354 0.276161 0.341058 0.182584 0.267826 -0.845725 -0.526298 -0.642819 -0.706279 0.747273 0.0951099 -1.45825 0.267649 0.505148 -0.495541 0.575325 0.0279017 -0.934432 -0.131989 0.63654 -0.344758 -1.49351 -0.0582412 1.1815 0.388759 0.0114719 0.0200794 0.879744 -0.453905 -1.08769 -1.0252 -0.932814 -0.58982 0.50188 -0.43534 -0.685096 -0.443154 -0.076973 -0.346747 -0.336345 0.574991 0.929052 1.48123 -0.301464 -0.0156484 0.773211 0.250813 0.925501 0.167006 0.124657 -0.727782 0.00200336 0.790995 0.327434 0.382225 -0.503824 -0.215999 -0.244719 0.495176 0.194011 1.22444 -0.427198 0.291625 0.315117 -0.746805
acoustics -0.142638 -0.307137 -0.0343511 0.0106471 -0.235254 -0.726063 0.655814 -0.043747 0.0480427 0.422102 -0.812179 0.27077 0.759891 0.670232 0.104141 1.21586 0.381036 0.301184 -0.302458 0.975017 -0.181581 -1.10778 0.131415 -0.807049 0.676177 -0.598649 -1.27157 0.728941 0.778402 0.0835564 -0.306735 -0.0308741 -0.17053 -0.197165 0.345581 -0.690507 1.30552 -0.519052 1.54503 0.650121 -0.0168768 1.2152 0.314012 -0.920582 -0.358757 0.638281 -0.117991 -0.992084 -0.390371 -0.242898 0.525974 -0.372479 -0.478269 -0.80101 0.272965 -0.0293955 0.0361034 -0.608402 -0.297862 0.135463 0.0460504 -0.0486508 -0.41184 -0.669243 -0.500774 -0.652965 -0.0157103 0.00536072 -0.54537 -0.522613 0.379546 0.596268 -0.917772 0.149006 -1.43301 0.794523 0.397488 -0.277 -0.467755 0.160965
acquire 0.0366642 -0.15912 0.439063 -0.303469 -0.578682 0.0145408 -0.752147 0.0153033 0.0288344 0.162856 0.281548 -0.148689 0.46863 0.0340127 0.77466 0.223031 -0.167192 -0.0593328 -0.74185 0.028858 0.0982531 0.687056 0.34614 0.133088 0.0489174 -0.496973 -0.327015 0.0852934 -0.0378708 0.60617 -0.618772 0.00196707 -0.642145 -0.161863 0.045936 -0.58768 -0.134381 -0.554616 0.959496 -0.0265722 0.0802913 0.141467 0.0303534 0.49522 0.140169 -0.0958765 -0.105544 -0.441249 -0.167948 -0.0902591 -0.451547 -0.28314 -0.298788 0.462227 -0.204366 -0.146932 -0.484683 -0.810737 -0.873198 -0.289974 0.162675 0.287107 0.183543 -0.411699 0.271405 -0.36307 0.57407 -0.482859 -0.0539128 -0.0468294 0.430034 -0.280809 0.170633 0.0451974 -0.311525 0.133033 0.72245 0.308939 0.243206 0.247017
acquiring 0.090119 -0.167067 -0.0882488 0.481788 0.00551265 -0.520769 -0.357777 0.838633 -0.157349 -0.160796 1.1809 -0.149387 0.141153 -0.283865 -0.573294 -0.00447993 0.156671 0.0260637 -0.27154 0.0265441 -0.340115 -0.25427 0.527561 -0.25206 0.386861 0.121383 0.252221 -0.078777 0.143813 0.314446 -0.0333894 0.313931 0.572928 -0.228831 -0.104856 0.295901 -0.99023 0.374514 0.120453 0.318464 0.439781 -0.184193 0.416791 0.352666 0.163901 -0.61171 1.03595 -0.221163 -0.0471517 -0.368399 -0.620403 -0.670055 -0.169076 -0.486211 -0.558778 0.373995 0.620735 -0.835558 -0.690679 0.671164 0.182117 -0.510542 -0.317271 -0.207093 0.084045 -0.286886 0.607686 -0.168273 -0.0695785 0.0703942 -0.423151 -0.0657172 -0.21304 -0.27773 -0.298797 0.442969 0.704318 0.0619686 -0.391314 0.244638
acquisition 0.240421 -0.0154804 -0.517546 -0.139264 0.204786 0.351205 0.776419 0.126064 0.0668449 -0.453488 -0.685927 0.208915 -0.277947 0.0853384 -0.222294 0.561536 -0.0751735 -0.864242 -0.658906 -0.256841 0.348052 0.0235098 -0.0362083 0.294688 0.16388 0.213767 0.822482 -0.601872 0.806372 -0.0116616 0.320766 -0.231514 0.102744 -0.125296 -0.288248 -0.117477 0.0225549 -0.0110647 0.0628761 -0.339845 0.37612 0.121746 -1.02366 -0.158286 0.342762 -0.494825 -0.338925 -0.345552 -0.198894 0.201284 -0.841463 -0.289166 -0.243833 0.431562 -0.318442 0.144519 0.102617 0.153637 0.124066 -0.325012 0.243346 -0.147689 0.284592 -0.353946 0.351351 -0.0643789 0.248733 -0.469856 -0.363021 -0.0730968 0.13825 0.47251 0.613112 -0.236934 0.310479 0.0980768 0.815434 0.581692 -0.0349895 0.582381
acre -0.464746 -0.567497 -0.340531 0.0347578 0.46827 -0.66721 0.414953 -0.320715 0.0013155 -0.65857 -0.186703 0.0512955 -1.17257 1.49066 0.20436 0.878803 -0.218617 -0.565921 -0.875601 -0.316797 0.135693 -0.519993 -0.3075 -0.274319 -0.141409 0.282762 0.492351 -0.153105 -0.106873 -0.418956 -0.420748 0.151394 -0.785214 0.961976 -0.230735 0.141194 -0.581331 -0.723636 0.369683 0.967195 -1.09472 0.031112 0.0624056 -0.508427 0.0270998 0.0166537 0.931386 -0.907619 -0.569874 -1.22948 0.207961 0.554516 -0.593132 1.56444 -0.205449 -0.814213 0.468979 -0.969138 -0.104573 0.265409 0.0299084 0.767586 -0.144773 0.475525 0.343898 -0.0760154 0.384734 -0.0410093 -0.539689 -0.518449 0.579679 0.612303 0.846331 -1.10488 0.688781 0.287666 -0.615509 -0.634887 -0.454971 0.285125
acrobat 0.558996 0.630673 0.600474 0.885813 0.793994 -0.233255 0.202282 0.257885 -0.302932 0.847755 0.519046 -0.362448 -1.03056 0.435714 0.993044 -0.680821 0.569948 0.672481 -0.693998 0.00629905 -0.509554 -0.0865829 0.703714 -0.454158 0.208029 0.593298 0.0199649 0.877977 -0.215248 -0.506613 -1.22739 -0.658889 -0.0898463 -0.251582 -0.643306 1.07282 -0.714909 0.356234 -0.666656 1.02414 -0.753658 0.365627 -0.719594 -0.335883 0.15953 0.823807 0.0218388 1.08403 0.394885 -0.696726 -0.0029309 1.31169 -1.14353 -0.86503 0.965172 0.523166 -0.19855 1.01116 -0.556297 -1.37915 -0.243474 0.474369 -0.707497 0.0647434 -0.134984 0.964878 0.271363 0.406123 0.808211 -1.24587 0.393697 -1.0391 -0.440244 1.1009 1.0514 -1.01094 1.11743 0.542108 0.558598 -0.387115
act 0.444661 0.322419 0.75201 -0.654909 -0.13713 0.369277 0.0431665 0.396574 -0.234489 -0.721188 0.0425412 0.301182 0.0268924 -0.176069 0.673835 0.16418 -0.286625 0.296702 -0.604506 0.107984 0.126977 0.308803 0.00336325 0.594594 -0.244326 -0.433713 1.04636 -0.155393 0.0218271 0.445521 -0.177336 0.804311 -0.363356 0.132171 0.800112 -0.652473 -0.968472 -0.417902 0.142872 0.522889 0.0342777 0.0143529 0.126443 -0.453833 -0.0844067 -0.331796 -0.565218 0.500761 0.0870969 0.13221 -0.0465047 -0.706007 0.982708 0.29632 -0.88467 0.276 -0.891583 -0.334891 -0.649683 -0.0147194 0.980322 -0.366115 -0.0991644 -0.205723 -0.224196 -0.636932 -0.955724 -0.112491 -0.416463 -0.361738 0.18319 0.344934 -0.386906 -0.915043 1.2797 0.403414 -0.15846 0.353691 -0.71858 -0.240134
acting 0.063112 -0.306963 0.812768 -0.639579 0.206046 -0.229013 -0.379929 0.354516 0.598384 -0.28172 0.429092 -0.497019 0.0788429 0.0378055 -0.166398 -0.262725 -0.0584835 0.37709 0.502404 0.695324 -0.185469 -0.26907 0.213554 -0.380703 -0.533856 0.117923 0.604522 -0.450312 -0.481846 0.231331 0.0280154 0.344553 0.0563239 -0.3246 0.179904 -0.17416 -0.161388 -0.0491873 -0.384086 0.605715 0.356267 0.48652 0.57373 -0.168897 0.255083 0.0315893 0.00666365 0.0305817 -0.12505 0.395732 -0.28618 -0.140484 0.749258 -0.239065 -0.298408 -0.0915278 0.518218 -0.561647 0.0415024 -0.495158 0.860425 -0.209962 0.182978 0.34069 -0.0581809 -1.03249 0.123505 -0.236758 -0.271454 0.591718 0.369182 0.320909 -0.455152 -0.338499 -0.0796608 -0.703718 0.14739 0.0155056 0.00638527 -0.180483
action 0.896827 0.335908 0.144976 -0.576149 0.161923 0.187479 0.133392 0.880689 0.380445 -0.0126209 0.335505 -0.419313 0.565753 -0.263234 -0.395524 -0.102411 0.0452422 0.0804284 -0.0804836 0.30841 0.316657 0.16951 0.35932 0.452668 -0.0905983 -0.880692 0.489921 -0.43056 -0.119081 0.456554 0.0960349 0.669614 0.00377646 0.196438 0.456941 -0.168515 -0.105559 -0.197467 0.0224138 0.677906 0.0462909 0.556949 0.233715 -0.102834 -0.145982 -0.606032 -0.639787 -0.136352 -0.433832 -0.157302 -0.333065 -0.305149 0.33169 0.035739 -0.304255 0.0772395 -0.17926 -0.0465037 -0.342836 0.17001 0.748083 -0.0852356 0.723859 -0.0353275 -0.126737 -0.624104 -0.0884638 0.337806 -0.596204 -0.279453 0.462367 0.832417 0.137637 -0.646478 -0.306744 -0.32242 -0.293535 0.672977 -0.137654 -0.35965
active -0.0361954 0.368199 -0.0982107 -0.205846 0.0631264 -0.132076 -0.130966 0.55003 0.0990268 0.0704701 0.810917 0.221533 0.249304 -0.14417 -0.217544 0.102978 0.0687359 -0.0603544 -0.789367 0.556638 -0.26222 -0.11146 0.381222 0.785244 0.0351765 -0.407417 0.246955 -0.282939 -0.607237 0.374941 0.138574 0.527943 -0.202841 0.0659793 0.421423 -0.746779 0.352099 -0.56216 -0.349894 0.493608 0.162227 0.142339 0.135342 0.232271 0.592684 0.370506 0.333726 -0.10454 0.200754 -0.684256 0.238221 0.87656 0.476804 0.227852 0.0944569 0.0712823 -0.199952 -0.59201 -0.832552 0.246444 -0.183361 0.418653 0.42343 0.0430118 0.00922063 -0.478497 -0.592276 -0.341085 -0.339322 0.22293 -0.36651 0.571713 -0.686892 -0.382191 -0.109635 -0.546533 -0.308646 0.510484 0.141462 0.203325
activity 0.385642 0.185837 0.194643 -0.412302 0.631895 0.145125 -0.133626 0.302955 0.564926 -0.100284 0.0388128 -0.0211008 0.126302 0.470139 -0.359032 0.561683 -0.220327 -0.56452 -0.845626 0.221666 -0.572882 -0.0853006 -0.00630364 0.0078824 -0.0850252 -0.565814 0.205364 0.518244 -0.0704217 0.216413 0.00691465 0.836253 -0.171933 -0.0231954 0.218985 -0.879697 0.675445 -0.486721 0.446731 0.647925 0.0463967 0.542617 0.172008 -0.472682 -0.0779142 -0.577261 -0.240056 -0.121798 -0.244854 0.398159 0.748898 -0.174423 0.0472894 0.499808 0.507745 0.513528 -0.397724 0.642504 -0.248232 -0.220449 0.379032 -0.246424 0.835428 0.360836 0.103764 0.258207 -0.791948 0.392193 -0.607689 0.69697 0.312816 0.492955 -0.15393 -0.499658 0.297951 -0.197035 0.27513 -0.0844133 -0.284106 -0.12388
actor -0.0776147 0.304154 0.49251 -0.42175 0.0783855 0.986195 0.570994 0.265212 0.283212 0.478506 0.211487 0.798252 -1.16241 -0.117824 0.475021 -0.402402 0.411586 0.663569 1.4841 0.711799 1.0544 -0.605166 -0.762984 0.257697 -0.516883 0.154072 1.04133 -0.169848 0.0201454 0.647813 -0.245531 -0.0648633 -0.0206932 0.461438 -0.714264 0.429961 -0.510155 -0.288971 -0.948836 0.0138511 -0.110268 -0.194547 0.0827096 -0.0449207 -0.740392 0.367007 -0.267689 -0.32542 0.493807 -0.276011 0.344267 -0.825143 0.397299 -0.00696075 -0.967038 -0.209042 0.088195 -0.163387 -0.363311 -0.506632 0.526231 0.812708 0.246188 -0.817144 -0.941079 -0.746743 0.47286 0.59079 0.210608 0.980344 0.0551398 1.18716 -0.560948 -0.323503 -0.0408217 -0.889098 -0.575692 0.33806 0.299392 -0.160442
actress -0.0814452 0.305208 -0.0347579 -0.331043 0.0252188 0.624188 0.721273 -0.219614 0.0894894 0.502094 0.196402 0.813451 -1.5603 -0.169136 0.622817 -0.335809 0.604031 0.720116 0.891916 0.948125 0.928924 -0.788539 -0.799947 0.111027 -0.1652 0.164591 0.87328 -0.458129 0.477701 0.458479 -0.116744 -0.0640433 0.282981 0.774636 -0.991545 0.34536 -0.675888 -0.689297 -1.00158 0.0981229 0.105575 -0.212233 0.175641 -0.265079 -0.60642 0.19553 -0.140381 -0.350021 0.48006 -0.51908 0.258737 -0.440189 0.609273 -0.109871 -0.802407 0.367542 -0.0782665 -0.179256 -0.0558835 -0.45688 0.540861 0.781804 0.068032 -0.726707 -1.02746 -0.48276 0.580889 0.384222 0.346352 0.474264 -0.0180181 1.27819 -0.111843 -0.309817 -0.0298539 -0.610378 -0.611997 0.792615 -0.0284147 -0.0881964
ad -0.0242747 0.856151 0.998493 0.407607 0.0395757 -0.0293815 -0.124646 0.868666 0.0311848 -0.278733 -0.0188789 -0.422205 -1.25339 -0.0634778 -0.127075 0.163668 0.390954 0.577234 0.38975 -0.679951 0.0219801 -0.602891 0.670502 0.822276 -0.791869 0.224016 0.427109 0.220487 -0.164301 0.279238 -0.674248 0.338934 0.283061 -0.0672859 -0.607016 0.696914 0.505627 -0.92806 -0.333591 -0.0231491 0.0030195 0.264787 1.19768 -0.456506 -0.853406 -0.639916 -0.00950949 0.190159 -0.632387 -0.524957 0.722751 -0.260655 0.0673083 0.2942 0.984448 0.748209 0.0164319 0.114387 -0.363429 -0.285944 0.463025 0.246087 0.316972 0.152293 -0.238305 -0.321331 -0.59027 0.0577977 -0.596333 -0.428808 0.0437143 -0.619961 0.189818 0.464885 0.232585 -0.0183364 -0.592072 0.65311 -0.0880553 -0.873368
adapt -0.589316 -0.728987 0.330218 -0.0852386 -0.128448 -0.119157 -0.14456 0.40265 0.17649 0.0333116 0.336869 -0.530326 0.400053 -0.397421 0.900636 -0.024242 -0.266132 -0.941143 -0.317783 -0.77827 -0.115298 -0.746603 -0.171156 0.428363 0.123767 0.549046 0.366675 -0.388903 0.323144 0.365228 0.315232 -0.767485 0.801813 0.0522826 -0.0120516 -0.309463 -0.0750552 0.742033 -0.142458 0.0361905 0.515615 0.190684 -0.251356 0.245738 0.324357 -0.104224 0.156644 -0.0996008 0.247608 -0.134743 -0.39694 -0.00308576 -0.232526 -0.0414578 0.322502 0.191904 -0.14317 -0.0138837 0.09756 -0.216696 -0.111188 0.104091 -0.097837 -0.0382648 0.78926 -0.274683 -0.22337 -0.360707 -0.968471 0.482751 0.456978 -0.228131 -0.872069 0.143483 0.0602143 -0.0616147 -0.447399 0.329387 0.636785 -0.50237
adaptive 0.955086 -0.193319 -0.104285 -0.142883 -1.058 0.286412 -0.32164 0.156712 0.252015 -0.0198072 -0.510282 1.1658 1.459 1.29476 -0.159029 0.18683 0.195095 0.259576 0.189414 0.412425 -0.0849769 -0.00397792 0.425339 0.437507 0.280244 0.372224 -0.537202 -0.378937 -0.0948047 0.302189 -0.464945 -0.271576 0.332054 0.764259 1.0274 0.256274 0.708008 -0.2777 -0.247401 0.38676 -0.0179085 -0.124186 0.942725 1.09473 -0.443036 0.0431435 -0.154986 0.0471346 0.200323 -0.616552 -1.62633 -0.299089 -0.51711 0.647769 0.31173 -0.207784 -0.582336 0.506227 -0.582031 -0.91848 -0.414276 0.0333261 0.605167 0.296179 0.0411656 0.641123 0.277325 -0.242734 -0.425825 0.333747 0.674254 -0.0697035 -1.02773 -0.722177 -0.643491 0.573724 0.19473 -0.409182 -0.205349 0.0873688
add 0.880499 -0.147034 0.0566884 -0.262762 0.658673 -0.403275 -0.157064 0.736119 -0.0556467 0.0626439 0.350272 -0.719856 0.343901 -0.15752 0.813348 0.865646 0.730586 -0.853807 -0.5932 -0.177869 0.495876 -0.246387 0.375916 0.0817634 -0.132012 0.523004 -0.362296 0.101563 -0.0281215 0.384244 -0.786085 0.570415 -0.947601 0.633794 -0.904077 -0.346703 -0.431517 -0.207074 0.240436 0.475626 0.182805 -0.117289 -0.0111888 -0.295082 -0.38017 -0.559331 -0.338168 -0.394086 -0.730925 0.310926 0.018823 0.128549 -0.00284918 0.24633 -0.0378423 0.231673 0.441516 0.0383777 -0.116321 0.355884 0.231158 -0.127807 -0.069259 0.169635 1.03606 -0.055797 -0.0837047 0.231471 -0.214102 -0.138787 0.440782 0.0357068 0.116994 -0.184542 0.00177604 0.0473528 0.141397 0.0687113 -0.425561 0.289079
addiction -0.284206 -0.503003 0.744472 -0.683548 -0.264457 0.624231 -0.443652 0.0616213 0.592387 -0.0740299 0.0829625 -0.660121 0.529489 -0.939216 -0.425443 -0.579297 -0.58212 0.321373 0.108522 -0.415335 0.198783 0.784685 0.485533 0.527579 0.0406211 -0.333723 -0.460571 0.342883 0.308298 0.579733 -0.562447 -0.295508 -0.337426 -0.436643 0.625011 -0.604684 1.01431 -0.441267 -0.189712 0.141189 -0.0200658 -0.173362 -0.428933 0.332867 0.361284 -0.563367 -0.51008 -0.547309 0.315343 -0.689313 0.307556 0.698157 0.853107 0.0886 0.847257 0.0454384 -0.283079 -0.356075 -0.688216 0.200663 0.472322 0.0772581 0.730503 0.805075 -0.383683 -0.798388 -0.932246 0.268165 -0.625442 -0.119015 0.0662332 0.124048 0.0482047 -0.226175 -0.80314 -0.117828 0.185738 0.437947 0.114829 -1.0541
addition 0.867825 0.315588 0.537172 -0.0675234 0.209608 0.063175 0.584635 0.391727 0.455498 0.189488 0.480197 0.192409 0.253797 -0.147075 0.203642 0.738415 0.0214318 -0.115372 0.200222 -0.106863 -0.121275 0.0443246 0.0255117 0.397741 -0.36587 0.0741925 0.669483 -0.109402 0.223821 0.578332 -0.399358 0.507107 -0.00678261 0.287848 0.0992706 -0.302064 -0.25718 -0.43322 -0.168951 0.536401 0.0739043 0.131038 -0.0256242 -0.0272759 0.277802 0.0398221 0.0665391 -0.429876 -0.592999 0.306444 -0.209288 0.156489 0.12913 0.296803 0.0159921 0.100251 -0.113863 -0.220741 -0.438756 0.0744442 0.495882 -0.0889372 0.268201 0.543334 0.438556 0.352648 -0.179731 0.105772 -0.608553 0.333069 0.379542 0.0727314 -0.346863 -0.597485 -0.37447 -0.138728 -0.41272 0.800259 -0.420664 0.309596
address 0.428985 -0.314918 0.554229 -0.161387 0.23969 0.321348 -0.0827978 0.258941 -0.240446 -0.300633 -0.817086 -0.0583533 -0.342555 -0.00732875 -0.293231 0.212419 0.0203594 -0.466796 0.344535 0.256982 -0.193471 0.41122 -0.438246 0.509096 -0.874439 0.276035 0.331611 -0.029197 0.0915742 -0.399222 -0.548664 0.374226 -0.283332 0.0600725 -0.848283 0.119183 -0.114139 -0.563498 0.119527 -0.385422 0.0161149 0.771704 -0.305622 0.536044 0.374749 -0.139837 -0.616398 -0.0660988 -0.144894 -0.226238 -0.756115 0.334839 0.465474 -0.351544 -0.155882 -0.340278 -0.633019 -1.38073 -0.311996 -0.46479 -0.108237 -0.17678 0.684015 -0.144642 -0.130761 -0.698562 -0.62519 -0.180261 -0.506704 -0.464582 0.245539 -0.200736 0.0972039 -0.319034 0.216758 0.0288387 -0.410394 -0.411688 -0.374629 0.243568
adhesion 0.390721 -0.897351 -0.517317 1.5541 0.549095 1.1214 0.273859 0.510029 -0.666681 -0.106805 1.03591 -0.0464868 1.02846 -0.840994 -0.308796 0.0556987 -0.189743 -0.315512 0.0451582 0.463554 0.822979 0.088009 -0.38429 -1.31503 0.346934 -0.0941019 -0.482962 1.02093 0.260513 0.528413 -1.47092 -0.826734 0.132339 -0.422754 -0.153874 -0.975789 0.0369457 -0.395318 0.632653 0.765455 -0.110109 -0.360949 0.380627 0.709455 0.48417 -0.840804 -0.0441325 0.357633 -0.224029 0.727918 0.224986 0.106078 1.0353 -1.30441 0.392981 -0.594862 -0.00667867 0.673907 -0.129487 0.710645 0.225802 0.647614 0.914523 0.0672157 -0.21313 0.18927 -0.15675 0.163735 0.140406 -0.797094 1.3518 -0.1215 -0.0230408 0.382196 0.790208 -1.02715 0.509493 -0.436737 0.0753718 -1.0979
adhesive -0.346664 0.527201 0.119838 -0.189344 -0.005769 -0.78517 -0.0911148 0.492489 -0.0423387 -0.522481 0.493252 -0.388016 0.448663 -0.684726 0.752693 0.910532 -0.583816 0.719877 -0.48517 -0.22432 0.64924 -0.495766 -0.0294823 -0.609208 -0.264347 0.660571 -0.0153463 0.805676 0.116764 0.270409 1.14882 0.129357 0.755776 1.2059 1.01062 -0.35354 0.971048 0.434389 0.466362 1.334 -1.03702 1.43939 0.0146933 0.363485 -0.419324 0.389658 -0.449979 -0.593655 0.36052 0.640617 -0.89272 -0.636774 0.957118 0.255337 0.809127 -0.178251 0.951748 -0.119442 0.0671796 -0.532465 0.688703 -1.50653 -0.868345 0.903096 -0.127394 0.761935 0.236961 0.175908 -0.430281 -0.103937 -0.12811 0.353964 0.155175 0.628811 1.14308 -0.336933 0.398784 -0.378495 0.0742612 -0.12267
adjustment 0.290363 -0.418608 -0.120634 -0.318442 -0.140182 -1.02897 -0.448792 -0.276803 -0.030491 -0.0253292 -0.714588 0.50434 0.443487 0.61733 -0.449194 1.15337 -0.269278 0.796853 -0.308005 -0.909584 -0.513959 -0.687916 0.192201 -0.185659 -0.408357 0.0153817 -0.307016 -0.222998 1.11914 -0.389569 -0.364185 0.282822 1.01812 -0.34139 -0.0735058 0.273129 -0.459551 -0.25189 0.423036 0.158571 0.428591 0.0511211 -0.0480887 -0.019196 0.118849 -0.0326798 -0.139199 -0.561192 1.0276 0.159813 -0.946256 -0.544834 0.198637 0.428498 0.0487774 -0.657937 0.300276 -1.80818 -0.705411 0.471309 0.520954 -0.286445 -0.0183228 0.0601053 0.123801 -0.344647 -0.873241 0.175188 -0.25508 -0.260807 -0.649948 0.148471 -0.208203 -0.79857 0.000198707 0.577381 -0.43734 0.19616 -0.8464 0.671865
administration 0.0989617 0.309945 0.0965079 -0.950582 0.0892672 0.0567903 0.115452 0.0508176 0.222465 -0.161757 -0.428454 0.470039 -0.104652 0.0732279 0.194227 -0.538005 -0.134667 -0.746736 -0.879677 0.446541 0.0879219 0.537188 0.681775 0.713612 0.0653389 -0.260243 0.642742 -0.73294 0.18673 0.325163 0.0226512 0.240565 -0.124222 -0.184789 0.0102198 -0.118819 0.240302 -0.350556 -0.0184804 0.0793906 0.61889 -0.279628 -0.386578 0.300897 1.0234 0.0717898 -0.0856186 0.247524 0.0072802 -0.105268 0.220383 -0.172484 0.257752 -0.568445 -0.910841 0.219761 -0.31702 0.140381 -0.498535 0.0685472 0.952152 -0.563492 0.231863 -0.299899 -0.0333039 -0.12177 -0.997673 -0.443198 -0.604972 -0.0178705 0.209103 0.42395 -0.219908 -0.582929 0.499737 -0.26037 -0.763728 0.519168 -0.280869 -0.595487
admiralty -0.234601 1.10708 1.37021 0.232251 0.186585 -0.400698 -0.952632 -0.668687 -0.184359 0.416242 -0.259216 0.498816 0.0117785 -0.40621 0.620477 -0.439602 0.377891 0.16285 -0.411071 -0.442289 0.25804 -0.40508 0.289608 0.696893 -0.500995 0.437672 -0.520878 0.692481 -0.812824 -0.479569 -0.666515 -0.173316 0.310033 -0.591308 0.360878 0.418159 0.223055 0.185692 -0.546856 -0.340864 -0.0564381 -0.0344401 0.116252 0.951259 -1.20597 0.0408055 0.515324 -0.917662 0.172924 -0.744487 -0.840034 0.315071 0.10119 -0.0735018 0.402406 0.242188 0.752941 0.768679 -0.572037 1.06347 0.807015 -0.328263 -1.01043 -0.383833 0.611802 0.466533 -0.229237 -1.02089 0.360836 -0.113628 0.890946 -0.921596 1.24742 0.154731 -0.403026 0.340249 0.458039 -0.320657 0.902665 0.314091
admission -0.289378 -0.724287 -0.635617 -0.128687 0.389653 -0.439106 -0.479895 0.303715 0.107635 0.0797358 0.0739197 0.292317 0.389974 0.329642 1.10804 0.165284 0.157029 0.107359 -0.418021 0.508342 -0.215608 0.791671 0.196465 -0.0287094 0.670823 -0.405212 -0.310934 -0.613974 -0.595805 -0.233544 0.308301 0.306993 -0.0322379 -0.592068 0.0198793 -0.539692 -0.212321 -0.164324 0.225189 1.02809 0.0040812 0.810532 -0.537759 -0.312501 0.623605 -0.616041 -0.52378 0.0427384 0.405107 0.249509 -0.349006 -0.624346 0.356235 -0.175626 -0.569648 0.207315 0.526297 -0.312028 -0.562296 0.110313 0.0647958 0.0315993 0.188971 -0.787017 0.429763 -0.192399 -0.528089 0.155798 -0.12823 -0.274445 0.093146 -0.0200846 0.0402403 -0.136885 0.0316956 0.152767 0.623047 0.903926 -0.119998 -0.283334
admit 0.190862 -0.0566068 0.271772 0.0647621 0.426182 0.134625 0.212611 0.643556 -0.736252 -0.487825 0.00276307 -0.0431921 1.56461 0.490873 0.608676 -0.706937 -0.19404 0.0878713 -0.118494 -0.0871927 -0.180799 -0.466715 -0.0218382 -0.263785 -0.464113 -0.442899 0.0068683 0.00538723 0.28146 -0.402698 0.549579 0.30826 0.598731 0.210108 0.117606 -0.2322 0.220477 0.515264 0.454409 -0.146541 -0.122785 -0.0597918 1.10552 0.413779 0.290688 -0.0522435 -0.904747 -0.00675865 0.317521 -0.610464 0.506576 -0.850358 0.560911 0.474383 0.700683 0.0168824 -0.588161 -0.21486 0.229019 -0.665003 -0.0448604 0.248814 -0.285143 -0.209638 1.06947 -0.0198561 -0.398833 0.488618 -0.0501216 -0.239842 0.137191 0.070533 -0.493924 0.298536 -0.227494 0.555249 0.180332 0.292843 0.50094 -0.308136
admitting -0.128595 0.198592 -0.503239 0.676131 -0.287975 0.669293 0.135525 0.219202 -0.191367 -0.0741157 0.376536 -0.191825 0.384026 0.0677921 0.0294027 -0.472054 -0.634845 0.18025 0.177254 0.267707 -0.122698 -0.609332 0.301838 0.565962 0.579342 -0.263787 0.0473697 -0.627172 0.267977 0.301727 -0.171736 -0.350696 0.800926 -0.523475 -0.207581 -0.700257 -0.698773 0.571995 0.263519 0.167307 -0.055677 -0.183131 0.42101 0.0628886 0.357167 -1.17443 -0.0474921 1.36122 0.771123 -0.446048 0.2315 0.505084 0.583569 0.368212 -0.416934 0.00193925 -0.0755611 0.0511758 0.125392 -0.371312 0.774911 -0.0258119 -0.398406 -0.444523 -0.224421 -0.713795 0.667415 0.332224 -0.0504599 -0.50215 0.388417 0.932892 0.229888 0.604786 -0.701131 -0.65018 0.097035 0.348574 -0.439304 -0.0662213
adult -0.522238 -0.155307 0.221564 -0.102733 0.343211 -0.0159635 0.262619 0.541253 0.0799086 -0.0884039 0.534624 0.773234 0.282637 0.307382 -0.598315 -0.262289 0.329964 0.71364 0.54402 0.0643809 0.275999 0.289897 -0.834496 0.704125 -0.515822 1.03282 0.482117 -0.355134 -0.00657961 -0.0284694 0.088491 -0.0170934 0.344927 0.179902 -0.244626 0.0328648 -0.175164 -0.458075 0.248843 -0.0785478 -0.49151 0.41056 -0.0900593 -0.464751 -0.0690034 -0.0946745 -0.438358 0.307931 -0.217035 -0.185463 0.256049 0.0360958 0.0594192 0.322129 -0.294349 0.215034 -0.444045 -0.309782 -0.639967 -0.0362855 0.0746286 -0.312706 0.523422 0.169608 0.195205 -0.59358 0.270203 0.337625 -0.163595 0.385015 -0.133428 0.286713 -0.581459 -0.661431 -0.294924 0.119552 -0.509246 0.522691 -0.116586 0.181121
advancement -0.306959 0.0949411 0.0328841 -0.383868 -0.0646938 -0.45073 0.535292 -0.0814117 0.18827 0.807506 0.104142 -0.237508 0.166074 0.0262057 -0.37581 -0.04976 0.707491 -0.300047 -0.0503036 0.059111 -0.296064 0.150553 -0.323466 0.330882 -0.309373 -0.542615 -0.225425 0.0360741 0.926544 0.0179671 0.373692 0.833278 -0.013631 -0.341622 -0.126678 0.216046 0.336026 -0.676962 0.0308781 -0.259662 0.0651656 0.424984 0.0313277 0.754177 0.356589 -0.0167049 0.0885219 0.455244 -0.128716 -0.191105 0.189758 -0.427312 0.186317 0.136749 -0.152364 -0.724946 0.361131 0.250716 -0.521597 0.182234 -0.498142 -1.0353 0.687787 0.153004 -0.573664 0.0331428 -0.419971 0.208374 0.0767896 -0.784446 -0.0234796 0.262264 -0.845792 -0.188099 0.0575752 0.590295 0.12023 0.218463 -0.434001 -0.668345
adventure 1.16308 0.025478 0.59467 -0.473521 0.267699 -0.376 0.501358 -0.779652 -0.0938434 -0.00886284 0.16701 -0.408998 0.338059 0.0653876 0.441429 0.665914 0.420743 -0.341896 0.476892 -0.0192221 0.167385 0.805088 -0.103565 0.618616 0.487189 -0.384812 -0.193358 0.140646 -0.797852 -0.763773 -0.0535132 0.178898 0.605109 -0.760828 -0.818201 -0.447761 0.867776 -0.128604 0.294986 0.622972 0.533213 0.255435 0.310789 -0.304901 0.152522 0.0151056 0.264194 0.139803 -0.695642 -0.337177 0.809613 -1.00519 0.667353 -0.184322 -0.261739 -1.25952 0.065106 -1.14458 -0.26391 -0.402359 0.146121 0.223631 0.619072 0.307594 -0.269338 0.0522127 0.383019 0.351717 0.20134 -0.662967 -0.013522 0.091307 -0.681375 0.213099 -0.677736 -0.121107 -0.583117 0.545345 -0.0193229 -0.571422
adversary -0.144366 1.62011 -0.915082 -0.129492 0.401421 -0.200965 0.061336 0.0719626 0.311145 -0.751361 -0.298238 -0.0294834 -0.889467 -0.493 0.444391 0.53995 -0.59359 0.272545 0.488176 0.0656128 0.271483 -1.30239 -0.0464031 -0.126532 -1.46093 -0.281893 0.194999 0.171 0.986003 0.328366 -0.787286 0.592059 -0.693611 -0.0156373 -0.0139912 0.221055 0.921386 -0.170499 0.233906 -0.273268 -0.690802 -0.788031 -0.0931924 0.0333154 1.61422 -0.334009 0.718738 0.104691 -0.555861 0.43831 -0.920025 0.539726 -1.34607 -1.087 0.340102 -0.479217 0.386438 0.714399 -0.720587 -0.0172605 0.451187 0.246645 0.900505 0.638338 -0.189918 0.790388 -0.215392 0.409809 -0.524665 0.285538 -0.804853 -0.20537 1.06457 -0.909851 0.134481 0.438748 0.390035 0.186238 0.0964389 -0.190013
adverse -0.13209 0.208554 -0.130114 -0.172079 -0.181222 -0.763896 0.550681 -0.0796293 -0.222817 -0.631158 0.0473418 -0.179046 -0.017968 1.25718 -0.646162 0.932617 -0.642018 0.313174 -0.841827 -0.299326 0.690662 1.25223 1.09343 0.180455 -0.572047 0.359174 0.16635 -0.358753 -0.0460351 0.329576 -1.26105 -0.768909 0.139272 0.373352 0.259487 0.323443 -0.294556 -0.172167 0.738385 0.373637 0.0985406 -0.00549599 0.51238 0.994867 -1.14546 0.405035 -0.120268 0.133973 0.281074 0.265188 0.0989715 0.542603 -0.100748 0.801953 -0.380495 0.115113 0.0136768 0.189369 0.167362 -0.654989 -0.64964 0.471444 0.416531 0.603112 0.824737 -0.683157 -0.564539 0.169922 -0.217146 -0.739931 0.798468 -0.766882 0.80353 -1.20564 -0.974112 0.473858 0.561262 0.290176 -0.325881 0.216373
adversely 0.0426972 -0.0381489 -0.772788 -0.20446 0.423502 -0.179686 1.13633 0.108068 0.0597478 -0.260573 0.981132 0.537096 0.692632 -0.672647 0.591964 -0.579987 -1.07102 -0.333486 1.01383 -1.38387 0.617703 0.958017 -0.539736 0.756183 -1.23407 -1.23625 0.0586592 -0.0546398 0.416168 -0.201338 0.0765463 -1.37921 -0.515043 0.467539 0.587801 -0.539784 0.513329 1.71189 -0.346487 0.258692 -1.31212 0.0394948 0.877882 0.237457 -0.390008 0.596585 -0.246085 -0.0281045 1.38497 0.406686 -0.342938 0.0287688 -0.931624 -0.10445 -0.114327 -0.289888 0.931379 -0.397674 0.065621 0.745858 -0.878886 -0.961347 -0.0755806 -0.23625 1.06413 0.820056 0.393212 -0.600831 0.171952 1.6801 0.641469 -0.0393277 0.469441 -0.340728 -0.615739 0.233136 1.12044 -0.339967 0.613378 0.525088
advertisement 0.00553117 0.261892 0.560143 -0.318812 -0.364129 0.113709 0.0794297 -0.458038 0.0902427 -0.102261 -0.86282 -1.32584 -0.176275 0.908333 0.133495 0.351036 0.0183471 -0.357198 0.23006 0.24694 -0.144859 -0.122446 0.715715 0.924731 -0.665728 -1.3066 -0.569539 -0.264838 0.568969 -0.0669938 0.569524 0.222619 -0.692703 0.010715 -0.905837 -0.0679023 -0.0919571 -0.125237 -0.0140232 0.0162075 -0.366958 -0.330781 -0.461585 0.614734 -0.141353 0.386666 0.729102 0.0102753 -0.104205 -0.144609 0.0510358 -0.0316418 0.273234 -0.391279 0.583885 0.065549 -0.859047 0.293523 -0.381426 -1.17813 -0.543745 -0.408479 0.750288 -0.408806 -0.142329 0.288975 -0.56078 0.673989 0.138117 -0.269974 0.180124 0.598371 0.283523 0.602191 0.143602 0.760688 -0.654969 -0.721975 0.085881 0.154123
advertiser -0.599709 0.17931 0.520611 -0.225004 -0.0373389 -0.808095 0.782924 -0.391542 1.08038 -0.316075 0.396998 -0.121098 -0.941914 0.446933 -0.710303 -1.08794 -0.704671 -1.37031 0.608752 0.283007 0.152428 0.80444 1.53193 0.743193 1.04458 -0.291536 -1.43602 -0.144988 0.0739245 -0.231985 -0.175845 -0.286772 0.450389 -0.591447 0.578483 -0.153998 -0.0813167 0.671074 -0.882238 -0.704719 -0.468423 -1.6835 0.826389 0.813521 0.431521 0.354448 -0.0130751 0.792302 1.17773 1.23952 0.108859 -0.0624565 -0.50212 0.41324 -0.403363 0.68596 0.760189 -1.06753 1.06082 -0.470643 0.229186 0.289632 -0.35434 0.521142 -0.644137 0.0442041 0.641159 0.732242 0.252087 -0.221439 0.171237 -0.594356 -0.75749 0.732478 0.860098 -0.887478 0.0350752 0.125303 -0.268936 -0.246234
advise -0.837523 -0.55692 0.120524 0.617285 0.481859 -0.385493 -0.415894 -1.15383 -0.108995 0.930177 0.0629819 0.247781 -0.261769 -0.440782 -0.0821059 1.36005 0.147714 -0.303627 0.537996 0.0938627 -0.177874 -0.0889833 -0.0766321 0.321591 0.00675622 0.528121 -0.0867941 -0.130272 -0.3063 0.823894 -0.930719 0.84246 0.155138 0.0903082 -0.202288 -0.404959 0.414693 0.605599 1.09657 -1.75432 -0.348613 0.131565 -0.348734 -0.0118288 0.208991 0.649988 0.207549 -0.533952 1.10332 -1.13597 -0.245559 0.421587 0.0861361 0.00892132 -0.148332 -0.3952 0.281111 0.566518 0.0136248 0.539317 -0.104985 -1.06026 0.16269 0.0410661 0.154936 0.468923 -0.815131 0.763422 0.592752 -0.251784 0.821117 0.207394 0.929844 0.399696 -0.140555 0.313311 -0.170745 -1.46908 0.638107 -0.22142
advised -0.264702 -0.125288 0.528556 -0.00208884 0.269892 -0.494133 0.191238 0.705905 -0.362774 0.266331 0.263104 -0.41947 0.741101 -1.29826 0.495497 -0.541331 0.0513097 -0.176894 -0.228531 0.23509 -0.549906 -0.062037 -0.0622967 0.454831 -1.09991 0.184575 -0.0605254 -0.249912 0.218356 0.22736 0.578497 0.00578369 0.614643 0.018789 0.573926 0.531867 -0.227925 0.309636 0.211815 -0.412591 -0.13375 -0.0572838 0.00592488 -0.195252 0.313941 -0.575912 0.0714175 0.451589 -0.159087 0.364968 0.819951 -0.545241 0.50822 -1.0102 -0.116385 -0.474155 0.176736 -0.596748 -0.0984277 -0.101687 0.0318278 -0.332287 0.25233 -0.0897052 0.223389 -0.293513 0.186241 -0.360889 -0.31247 -1.04107 -0.432756 0.098705 0.52801 -0.220369 0.109024 -0.123234 -0.273191 -0.150292 0.930839 -0.809702
advisory 0.311944 -0.0723508 0.265373 -0.078974 0.755494 1.06393 0.251771 -0.875792 -0.708957 -1.39956 0.586767 0.445092 0.184663 -0.358255 -0.531005 0.731114 -1.39772 -0.25575 0.260418 0.843485 0.381725 -0.0144632 -0.509969 0.804468 -0.230526 -0.823983 -1.41254 -0.0813314 -0.37569 -0.510415 -0.606671 0.0776327 0.347995 0.504608 0.0919402 -0.0271512 -0.0263319 -0.16949 -0.276517 -0.507628 1.3186 -1.09867 -0.638088 0.30187 -0.882337 0.461229 -0.712848 0.478633 0.31922 1.08574 0.0106882 -0.800663 0.59325 1.08755 -0.745524 -0.224472 0.678144 -0.956027 0.533884 0.235726 -0.722654 0.490566 -0.111948 0.419657 0.383099 0.374648 0.0565835 0.864643 1.05994 -0.317368 -0.60587 0.164587 0.259827 1.31255 -0.967446 0.115652 -0.284829 1.15589 -0.724831 -0.37116
advocate 0.233468 -0.136146 0.546981 -0.0820633 -0.268537 -0.34413 -0.191497 -0.0961902 0.153534 0.223871 -0.463287 -0.552885 0.553818 -0.283346 0.08075 0.04264 -0.242058 0.101705 -0.173165 0.482475 0.400733 0.76351 -0.49179 0.0656436 -0.345076 -0.16704 0.192307 0.0337995 0.730431 0.941417 0.0274406 -0.115221 -0.0158386 -0.317191 0.186132 0.144056 0.119537 -0.123234 0.241742 0.780922 0.481795 0.426959 0.0120774 -0.284797 -0.165079 0.177725 -0.867629 0.101196 0.746557 -0.096553 -0.397666 -0.507565 0.263345 -0.669588 -0.0365107 -0.344552 0.201803 0.711472 0.13642 -0.523037 0.156575 -0.44236 0.373888 -0.232193 -0.404066 0.420591 -0.203558 0.172479 -0.618385 0.0175489 -0.491822 -0.217485 -0.0662746 -0.34065 0.642613 -0.0522645 -0.545828 -0.235258 -0.225898 -0.159081
aerial 0.0550408 -0.180037 0.263176 -0.684427 1.31825 0.144488 -0.0917539 -0.597151 0.193207 0.0690489 0.244595 -0.566961 -0.127815 -0.311576 0.261336 0.457975 0.41862 0.312879 0.169403 0.32689 0.754257 -0.124271 -0.658586 0.11907 0.128986 0.0511406 -1.19358 0.108418 -0.43833 -0.021537 -0.350126 0.101033 -0.992163 -0.688365 0.614214 -0.651081 1.17057 -0.300312 0.332453 0.518122 -0.574774 -0.461326 -0.633622 0.598181 -0.406084 -0.250566 0.261591 -0.319618 -0.236913 -1.37748 -0.403536 -1.04831 -0.149759 -0.24066 -0.232151 0.119074 -0.506789 -0.394021 0.0941338 0.484898 0.349924 -0.298579 -0.404869 -0.433498 0.404785 -1.035 -0.378215 -0.160397 0.901054 -0.0197834 -0.608831 0.788759 -0.427024 -0.350096 0.131215 0.139553 0.703119 0.346436 0.678516 -0.453431
aeronautical 0.57479 -0.450154 -0.375126 -1.4471 -0.195407 -0.556127 0.246798 -0.229513 -0.519896 -1.60338 -0.853187 -1.16988 -0.200551 -0.0922365 -0.245449 0.149813 0.566521 -0.567241 -0.364541 -0.369375 -0.00281432 0.564359 0.232091 -0.256898 0.420018 -0.566619 -0.508049 0.330697 0.230955 0.00613376 -0.364758 -0.0945315 0.0334203 -0.787158 0.818919 0.514657 -0.0415512 0.389467 0.747914 0.929962 -0.472993 -0.642757 -0.227974 -0.95734 -0.432268 0.205108 -0.00172195 -0.698622 -0.501462 0.163175 0.519338 0.361918 -0.710473 0.460972 -1.19352 -0.58562 -0.547883 -1.61788 -0.970689 0.413709 1.25559 0.478916 0.574832 0.736989 -0.262284 -0.56443 0.0874491 -0.537366 0.520934 -0.925008 0.1191 -0.257365 -0.392376 0.219076 -0.976759 0.622849 -0.317656 0.0963226 -0.288544 0.63799
aeronautics -0.580948 0.565745 0.251601 -0.982086 -0.320016 0.14862 0.387722 0.655612 -0.0982957 0.248476 -0.736848 -0.603178 0.954571 0.863852 -0.455152 0.168052 0.948075 -0.288844 0.197532 0.499164 -0.72623 0.454667 0.214035 0.30038 -1.05668 0.267618 0.3499 -0.389888 -0.252344 0.0749967 0.342179 -0.510898 -0.049156 -0.448673 0.068086 -0.12945 0.130554 0.490926 0.437518 0.508897 0.0416717 -0.444483 -0.899209 0.410788 0.237529 0.508865 -0.723366 0.0210139 0.451389 0.436025 -0.511135 -0.583128 -1.1766 0.318012 0.700138 -0.502159 0.314899 0.00014475 0.345667 0.310981 0.0498671 0.649341 0.332023 0.309312 0.583257 0.0949431 -1.01731 -0.411053 -0.0193776 -0.273453 -0.535561 0.399973 0.0667045 -0.38414 0.660238 0.590145 -0.328198 -0.299485 -0.225933 -0.983201
affect 0.47084 0.00139767 -0.300515 -0.1656 0.0866601 0.424997 0.271451 0.0339874 1.03162 0.0722526 0.475164 0.0339829 1.06329 0.0059005 -0.454527 -0.0383603 0.0492737 0.121146 0.0345063 -0.0465155 -0.138452 0.784332 0.354524 0.300493 -0.264301 -0.0649402 0.224166 -0.322697 -0.465271 0.527706 -0.422711 0.454792 0.440687 -0.590846 0.758348 -0.708579 0.922335 0.324146 -0.0320149 0.599692 -0.184339 0.198281 0.882898 0.453299 0.0178759 -0.0264369 -0.777476 -0.0385005 0.291307 -0.0728941 0.672633 -0.0419585 -0.231074 -0.0860745 0.297706 0.232315 0.297588 0.119883 -0.129963 0.509136 0.19252 0.209345 -0.0100427 -0.118333 0.648883 -0.163697 -0.634423 -0.189598 -0.486858 0.23161 0.525899 -0.134731 -0.0200774 -0.215474 0.251378 -0.167144 -0.0809704 0.168428 -0.201081 -0.538495
affectional -1.36768 -0.0425729 0.128205 0.233815 -0.160138 0.0188303 -0.403225 -0.87691 -0.226091 0.13267 1.42281 0.0969612 0.444976 -0.626798 0.638026 -0.717977 -0.896914 -0.0255535 -0.703856 -1.35211 -0.0925993 1.39717 0.308046 -0.534099 -0.0032274 1.24363 -1.52219 0.0800575 -0.396158 -0.162961 -1.33094 -0.292266 1.02867 -0.201407 0.740294 -0.493424 -1.05717 -0.0827592 0.368579 -0.323969 -0.251304 -0.544796 -0.10432 0.792374 -0.508076 0.33265 -0.0444416 -0.263249 1.26874 0.705968 0.273169 -0.226309 0.095362 -0.941021 1.29261 0.533795 -0.177966 -0.693595 0.045663 1.60893 0.926525 0.304392 -0.476804 0.590905 0.0315606 -0.575577 0.743777 -1.36878 1.19745 0.528123 0.630689 0.0890778 0.724573 0.354926 -0.708354 1.52742 -0.00354008 0.553964 0.353512 0.491077
affiliation 0.0757797 0.357259 -0.0611118 0.360681 -0.116396 0.15272 0.154136 -0.454385 0.514898 0.271579 -0.278808 0.0375464 0.251365 -0.474811 0.0295714 0.115414 0.261116 -0.00883058 -0.0264191 0.822939 -0.412151 0.359201 -0.478018 0.282423 -0.456098 -0.315089 0.0796248 -0.119358 0.577141 -0.317184 0.195955 0.821511 0.254458 -0.280457 0.346551 -0.192439 -0.664107 0.309738 0.49717 0.292068 0.891816 -0.826207 -0.053898 -0.432011 -0.786179 0.214876 -0.718242 0.39845 0.887487 -0.418597 -0.244064 0.613922 0.220435 0.014215 -0.137032 -0.175297 0.245283 0.573511 0.0849581 0.534219 0.862704 -0.48402 0.269609 -0.0215829 1.19833 -0.113623 0.215541 1.17078 -1.04506 -0.430468 0.322661 -0.322503 -0.372166 -0.561566 -0.298515 -0.0208143 -0.476967 -0.393235 0.357665 -0.158137
affirm -0.748334 -0.0173073 -0.0146702 0.875061 0.0250322 0.387128 -1.22721 0.647664 -0.14315 0.0303775 0.212684 -0.466321 0.346673 -0.763491 0.0521524 -0.662229 0.774911 -0.334115 0.758005 -0.611106 0.1633 0.303738 1.07054 0.269307 -0.143146 0.109618 -0.445207 0.314795 -0.308191 1.45448 0.165102 -0.0717082 0.287245 -0.572843 0.192985 -0.297174 0.210164 -0.4158 0.739644 0.0659347 -0.106615 0.710618 0.911336 0.278655 1.15704 0.146589 0.26991 0.409169 0.202947 -0.0734846 -0.204202 0.527051 -0.0918694 -0.0429657 -0.00739523 0.649657 0.670666 0.218619 0.571785 0.940941 -0.664214 -1.23416 -0.914985 -0.093302 0.792308 -0.00333346 -0.173311 0.45528 -0.586074 0.579673 -0.0711662 0.31886 -0.00934035 0.787712 -0.519595 -0.227149 1.40646 0.0400003 -0.540978 -0.550214
affordable 0.406062 0.18213 -0.700752 0.263908 0.534416 -0.330446 0.0658371 0.664371 0.0216993 -0.505162 0.654385 -0.0048716 0.423595 -0.459952 0.814526 -0.144444 -0.153571 -1.0189 0.206658 -0.37988 0.516844 -0.134883 -0.0483271 -0.298127 0.476929 -0.110493 -0.213098 0.011969 -0.840842 1.23461 0.145123 0.494857 -0.697838 0.254154 0.200572 -0.359432 0.320033 0.909044 1.00419 0.190359 0.248919 -0.50403 -0.53235 -0.407248 -0.305975 0.525979 0.319544 0.0737386 0.499176 -0.278653 -0.19882 -0.291943 0.315837 0.0996271 0.468459 -0.147476 0.399865 0.228967 0.650224 0.0683645 -0.322031 -0.750424 0.54342 0.344932 -0.210812 0.0973544 0.445833 0.723293 -0.114095 -0.0792863 0.654903 -0.921502 0.897087 -0.227119 0.0568753 0.173907 0.195296 -1.00848 0.667653 -0.624336
afghani -0.217234 -0.0856547 0.000909541 -0.295374 -0.77143 0.314797 0.179258 -1.01462 0.209662 0.952221 0.0332868 -0.418264 -1.00855 0.980575 0.583138 0.431264 -0.611688 0.421396 0.260163 0.890699 -0.910315 -0.846476 1.18394 1.26859 0.0942837 -0.580419 -0.637049 -0.879291 1.56377 0.696368 -0.458027 -0.173599 0.734259 -0.297616 -0.48386 -0.830436 0.66195 -0.371843 -0.0222355 -0.227032 0.347299 0.520964 0.15771 0.408922 -0.114691 -0.900647 0.0539654 -1.12769 0.203055 -1.60962 -0.406424 -0.922526 -0.84531 -0.0324098 -0.168607 0.702046 0.0187118 0.0553758 0.760584 -0.504345 0.861817 0.840516 -1.28724 -0.0568439 0.242227 1.2383 -0.496419 -0.0885344 -0.0554561 -0.0319237 -0.521737 0.31925 -1.08034 -0.138871 -0.39338 0.188892 0.805746 -0.550483 -0.42016 0.766771
afghanistan 0.317633 0.270368 0.146172 -0.289829 0.50757 0.517288 -0.726172 -0.195969 -0.0555205 -0.764675 -0.466352 0.00824434 -0.292535 0.448738 -0.644904 -0.457074 0.0436386 -0.621015 -0.101027 0.0570306 -0.0362308 -0.048447 -0.0302324 0.381394 0.489627 -0.405263 0.993309 -0.0922256 -0.55644 -0.450654 0.24578 0.532209 -0.406734 -0.376543 0.632587 -0.34699 -1.05429 -0.526656 -0.0194605 0.768907 0.742996 0.140788 -1.2841 0.128951 -0.131599 0.26979 0.361558 -0.262422 -0.275179 0.617574 0.358309 0.43701 0.203657 0.595405 -0.58365 0.987526 -0.496514 -0.769886 -0.158496 -0.524692 0.0144085 -0.0458036 0.318639 -0.119802 -0.19252 0.434949 -0.815395 -0.479452 0.0992831 -0.875776 0.00229402 0.599454 0.221465 0.209618 -0.101881 0.18078 -0.484021 0.0427771 -0.384217 0.572487
afraid -0.267263 0.172628 -0.235583 1.17881 -0.247282 -0.096922 -0.167576 -0.934275 0.337611 0.356358 -0.110562 0.310964 0.0183745 -0.0520023 0.154912 0.373089 -0.414597 -0.193288 0.083806 -0.0253057 -0.213059 -0.474379 0.529164 -0.812707 -0.196083 -0.0985702 0.0774096 -0.181571 0.438749 0.069935 0.732736 0.135614 0.421503 0.416869 0.290069 0.040912 -0.247833 0.782611 -0.0771452 0.762358 0.0277168 -0.0474416 -0.382667 0.425309 0.316039 0.379244 -0.44188 -0.381675 -0.486534 0.7037 -0.29365 0.500691 0.43422 0.152466 0.428712 0.16649 0.847181 0.40225 0.31803 -0.0357199 0.171194 0.0195042 -0.553167 0.767179 1.07314 -0.856534 0.361973 0.0652749 0.243423 0.443047 -0.589938 -0.903823 -0.0731433 -0.271925 -0.292699 0.199131 0.310917 -0.195616 0.143937 0.346574
africa 1.10865 0.410458 0.22728 -0.194358 -0.605189 0.0793786 -0.00626303 0.319543 0.233675 0.432573 0.293988 0.953624 0.0343101 -0.226076 -0.923652 0.541953 0.421724 0.191891 0.0132127 0.0235032 -0.25055 -0.378483 0.181586 0.477605 0.101684 -1.06823 0.781033 -0.873817 -0.884369 0.187661 -0.152016 0.576707 -1.33788 0.417873 0.0650958 -1.36741 0.382989 -0.605043 -0.755948 0.433745 -0.366434 0.304707 0.412258 0.115988 -0.214999 -0.571152 1.31861 0.69176 -0.520613 0.915585 -0.382722 0.0933373 0.358943 0.0299752 -0.638473 0.595889 -0.957317 -0.736664 0.0663969 0.166124 -0.199998 1.04634 0.592475 -1.1924 -0.167723 -0.211437 -0.650383 0.0279248 -0.221003 -0.69404 0.253543 0.0975753 -0.509037 0.196183 -0.810703 -0.458027 -0.697253 0.337192 0.0878586 -0.549964
african 0.06462 0.297846 0.430586 -0.560292 -0.616714 0.169772 0.0606983 0.315356 0.357497 0.0396122 0.15756 0.938229 -0.0338796 -0.389934 -0.757453 -0.0669171 -0.291072 0.627769 0.855785 0.0833972 -0.808478 -0.571392 0.073349 0.196282 -0.349609 -0.650554 0.933521 -0.552268 -0.664742 0.203908 -0.399694 0.56263 -0.944984 0.0527481 0.048831 -1.04187 -0.0379903 -0.827725 -0.611307 0.929525 0.133909 0.0952742 -0.299242 0.284851 -0.756583 0.202743 0.53274 0.323161 -0.366075 0.198629 0.0653372 0.179201 0.594938 0.175955 -0.680365 0.0156047 -0.581098 -0.465393 0.156057 0.0211598 0.26081 0.709395 0.0260427 -0.603805 0.043559 -0.292545 -0.542047 0.921218 -0.603235 -0.162592 0.734271 1.3898 -1.03608 0.36857 -0.0981593 0.196326 -0.128879 0.938901 0.311739 0.295858
afternoon 0.0729163 -0.0232075 0.222858 0.499751 0.404859 0.188175 -0.152072 0.200385 0.0517574 0.498551 0.730532 -0.0137807 -0.383334 0.0937794 0.366946 -0.317081 0.0145951 0.128669 -0.352935 -0.392124 0.024283 -0.321996 0.210473 -0.187122 0.350213 0.408462 -0.0170051 0.220403 0.0490813 0.182892 0.363087 0.607573 0.222256 -0.554146 -0.530072 0.503812 -0.453682 -0.304302 0.427163 0.321971 -0.457566 -0.101745 0.0997915 0.15704 0.375444 0.385199 0.648994 0.131918 0.342179 -0.262829 0.667792 -0.0419965 -0.172465 0.224129 -1.31807 -0.181388 0.157936 -0.168397 -0.216134 1.03194 -0.322401 0.506613 0.195012 -0.592266 -0.341625 0.109098 -0.791545 -0.485779 -0.0609746 0.306848 -0.343384 0.085863 0.602767 -0.416361 0.270538 -0.188931 0.509836 -0.289408 0.621459 0.0918224
age 0.33435 0.303313 0.78208 0.399271 0.276635 -0.114062 0.855752 0.717307 0.94001 -0.296635 0.7071 0.960004 0.0708896 0.456664 -0.118186 0.388954 0.259002 0.534756 -0.796805 -0.0792724 -0.944313 -0.162025 0.443277 0.495345 -0.131051 0.24743 0.811775 -0.161901 0.580191 0.591718 0.0782851 0.82477 -0.0890171 -0.619909 -0.335068 0.618455 0.386168 -1.30093 0.0762112 0.901176 0.0154456 0.46539 -0.154508 -0.611858 -0.326331 -0.331542 -0.447658 0.765088 -0.742027 0.090371 0.347913 -0.237989 0.207091 0.217818 -0.319171 0.573834 0.027667 0.608111 -0.525821 0.451768 0.599507 -0.384759 0.540379 -0.43897 -0.680423 -0.654017 -0.163388 -0.164424 -0.241794 0.287026 -0.0987706 -0.095561 -0.927817 -0.666362 -0.643573 0.0532841 -0.745465 -0.0223884 -0.430906 0.0413772
agency 0.0842738 0.489583 0.0607732 -0.526755 0.123569 -0.15339 -0.125106 0.0989823 -0.332168 -1.0037 -0.616196 0.372465 -0.308126 0.00289199 0.0729865 -0.135133 -0.766231 -0.546239 -0.00691335 0.505316 0.511273 -0.451682 -0.164844 0.868631 -0.597863 0.384686 0.111297 -0.419439 -0.341172 0.657877 -0.169876 0.600323 -0.07637 -0.284035 -0.43828 -0.100336 -0.105564 -0.590592 -0.208505 0.449717 0.153062 0.351688 -0.628555 0.151245 0.212848 0.0872282 0.190206 -0.105092 0.0672572 0.290184 -0.593026 -0.458543 0.32655 -0.282427 -0.542404 0.0815399 -0.853774 -0.368534 -0.474562 -0.439523 0.927477 -0.495515 0.374472 0.647201 0.791353 -0.011963 -0.428145 0.460535 -0.222513 -0.70312 0.329697 -0.330599 -0.295511 -0.490632 0.928954 -0.114493 -0.45758 0.117544 -0.799976 -0.42
agent -0.158018 0.661223 0.107048 -0.105375 0.0191945 -0.0472356 -0.24137 0.422475 -0.0429565 -0.0977516 -0.283275 0.433698 0.40857 0.116472 -0.242804 0.0867624 -0.676495 -0.627136 0.332707 0.311404 -0.317622 0.32401 -0.179988 0.211128 -0.367594 -0.246316 0.20504 0.728214 0.0238923 0.448733 -0.412138 0.0452918 0.0930356 0.102623 -0.660323 -0.39447 0.0333025 -0.639251 -0.2979 -0.0268344 -0.495614 0.577263 -0.544194 -0.100018 -0.179265 -0.641462 0.108178 -1.02626 -0.0802253 -0.228496 -0.597888 0.171542 0.179472 0.184565 -0.341935 -0.224997 0.569871 -0.0944395 -0.289589 0.0806639 -0.101375 -0.504304 0.447781 0.248861 -0.0223236 -0.497531 0.256731 -0.357048 0.126243 -0.157419 -0.852627 0.231373 -0.0243863 -0.225827 -0.10757 0.0645339 -0.685504 -0.28779 -0.453668 -0.244081
aggression 0.277251 -0.288157 -0.521426 -0.667935 -0.15201 0.511181 -0.0150021 0.9007 -0.389128 -1.38112 -0.5809 -0.138849 0.506583 0.307188 -0.778372 0.3893 0.127418 -0.33196 0.146459 -0.27612 -0.572892 0.368547 -0.0782264 -0.403089 -0.647285 -0.542555 0.384014 -0.408401 -0.172481 0.882263 -0.604901 0.194652 -0.250407 -0.203242 1.05103 -0.17537 -0.448436 -0.575271 -0.668968 -0.0731158 -0.31849 -0.328586 0.530474 -0.094984 0.831173 -0.425895 -1.10574 0.0130996 -0.0456569 -0.813859 -0.734658 -1.3524 -0.269019 -0.0168886 0.82874 0.130842 -0.541081 0.0840411 -0.061162 1.09986 -0.0554757 -0.676872 -0.269688 0.570038 0.528897 -0.0789596 -0.337658 0.219503 -0.119686 -0.166945 0.0623723 0.614775 0.119385 -0.129277 0.625727 0.789089 0.351845 0.592514 -0.0309048 0.248464
agitation -0.0246078 0.0464473 -0.4022 -0.0936344 0.277112 -0.211063 -0.218141 -0.403773 0.180376 -0.998047 -0.400521 0.258416 -0.431923 -0.724548 0.0754437 -0.802755 -0.157911 -0.862081 -0.881448 0.235998 -0.215177 0.159521 0.0537556 0.454245 0.317118 -1.66816 0.425942 0.705032 -0.333291 -0.478819 -0.155249 -0.0163531 0.495901 -0.59802 0.269991 0.307865 -0.975354 -0.759884 -0.454644 0.0755764 -0.0414006 -0.235603 -1.47767 -0.00522441 -0.142813 -0.607143 -0.543558 -0.736468 0.402409 0.29723 0.182905 -0.469398 0.439143 -0.628614 0.544564 -0.307994 0.103487 0.527271 0.717265 0.255093 0.256159 -0.281538 0.0691009 1.14789 0.0970608 -0.268603 0.493678 0.367101 -0.720818 -0.18342 0.663857 0.0757989 -0.579139 -0.218235 0.70409 0.070457 -0.70425 0.492665 0.619202 -0.605376
agony -0.872471 -1.12956 0.957601 0.917811 -0.623096 0.293733 -0.355763 -1.09915 0.0754147 -0.47069 1.05501 -1.16767 0.0735294 -0.124201 -0.047767 0.0759265 -0.362034 0.117596 -0.715643 0.21967 0.660916 0.769667 -0.154594 0.110768 0.58072 0.974671 0.447365 -0.566561 -0.184454 -0.277448 -0.469394 0.112294 0.0395067 -0.80223 0.503037 0.369517 1.45438 -0.00541094 0.345356 1.00369 -0.882776 -0.884892 -0.407745 -0.105751 -0.0475168 0.16892 0.538339 -0.873758 0.535088 0.450646 -0.446899 0.890654 0.351608 0.75439 0.743965 0.133647 1.6797 -0.199835 0.527369 -0.697263 0.183146 0.779644 -0.546871 0.209498 2.30744e-05 1.0656 0.368748 0.792153 -0.846841 0.427527 -0.406017 -0.45214 -0.275168 -0.220681 -0.105366 0.0396129 -0.467701 -1.60608 1.24819 0.0790513
agree -0.00615132 0.133657 0.595959 -0.0751095 0.403511 -0.11432 -0.350392 0.58362 -0.285929 -0.371979 -0.152887 -0.78865 0.433279 -0.761059 -0.525705 -0.0936928 0.438584 0.25719 0.117861 -0.314814 -0.655088 0.317813 0.227159 0.0350971 -1.06312 -0.894152 0.44792 -0.145391 -0.574869 0.551597 0.0973011 0.578883 0.269722 0.205449 0.157357 -0.0678219 0.228088 0.105764 0.0450509 0.196275 -0.433907 -0.125092 0.188048 0.175473 -0.00942359 0.027788 -0.689065 -0.551806 0.0655011 0.384855 0.265141 0.386991 0.302593 0.351397 -0.1099 0.0532366 -0.100432 0.683928 -0.153829 0.669359 -0.0844145 -0.32623 0.137744 -0.535834 0.194278 -0.146946 -0.395603 -0.460085 -0.398003 -0.0945443 0.632559 -0.185335 -0.492916 -0.393505 -0.41828 0.181331 -0.228236 0.0212698 -0.0250478 -0.226824
agreement 0.441746 -0.412327 0.389896 -0.246624 0.411907 -0.198014 -0.0752305 -0.0795344 0.128756 0.365818 0.0717143 -0.0896708 -0.0305984 0.0714055 0.217255 0.0939655 0.367088 0.021283 -0.940492 -0.025913 -0.211686 0.073955 -0.113313 0.00148043 0.353791 -0.384583 0.872595 -0.459255 0.362652 0.21003 -0.45857 0.158966 -0.735851 -0.0800161 -0.657006 -0.347288 0.42287 -0.437343 0.142997 0.214505 0.597008 0.452518 0.0839494 -0.310768 0.0636804 -0.207768 -0.250013 0.12387 0.323088 0.0921017 -0.202031 -0.694974 0.498746 0.0274696 -0.353053 -0.143782 -0.18469 0.350809 -0.445414 0.0253975 0.662972 -0.192788 0.473147 -0.33204 0.615176 0.0501509 -0.989775 -0.0100385 -0.275287 -0.206005 0.23444 0.923029 0.338662 -0.382752 -0.0316221 0.258321 -0.445484 -0.075178 -0.45293 -0.343773
aid -0.0142991 0.28522 0.387204 -0.360875 -0.147364 0.020421 -0.704817 0.267542 -0.169062 0.0649298 -0.0387566 0.198313 -0.0474835 0.271859 0.431246 0.256005 0.00967393 -0.441179 -0.416616 -0.0731203 0.418934 0.487745 -0.443566 0.283174 -0.152703 -0.100064 0.359935 -0.193624 -0.257955 -0.0948099 -0.395218 0.327335 0.0264089 -0.193731 -0.229341 -0.181737 0.127743 -0.0760601 -0.261633 0.803833 -0.00792982 0.247775 -0.651206 -0.537671 -0.483922 -0.4298 -0.188681 0.0137004 -0.269918 0.442837 -0.154399 -0.112518 0.302693 -0.105673 0.188195 0.334205 -0.55056 -0.747829 -0.508663 0.156657 0.643889 -0.442662 0.409579 -0.194437 -0.020241 -0.177819 -0.559539 0.153608 -0.723939 0.294553 -0.0918525 0.638683 -0.48856 -0.134462 0.789954 0.168653 0.0648582 -0.220262 0.480167 -0.0928319
aim 0.0901159 0.178978 0.153114 0.335404 0.0292249 -0.422123 -0.252456 0.536516 -0.16851 -0.148494 0.275212 -0.405427 0.413268 -0.430105 0.112573 -0.180707 -0.601817 -0.58941 -0.542145 -0.0290138 0.360735 -0.275939 -0.0883057 0.635104 -0.566744 -0.00513166 0.051391 0.146338 -0.0381874 0.682613 0.0739262 0.498689 -0.125435 0.0874709 0.280838 -0.184693 -0.0729922 0.021658 -0.182015 0.0139038 0.0186398 -0.0273328 -0.112333 -0.172602 0.149827 -0.0996331 -0.280488 -0.0786536 -0.0390255 -0.260166 0.114658 -0.054121 0.19037 -0.448262 -0.361705 0.147872 -0.118217 0.341752 -0.37639 0.554706 0.427418 0.162864 0.7816 0.13429 -0.0401395 0.0734949 -0.00847266 -0.30361 -0.466596 -0.521699 0.260756 0.260276 0.0404372 -0.26771 0.161844 0.420926 -0.107032 -0.0392607 -0.108996 0.25037
air 0.839988 0.502093 0.007606 -0.578845 0.758751 0.601462 -0.158262 0.944644 0.0791912 -0.412108 -0.286277 0.578581 0.19047 0.111878 0.35205 0.733689 0.687574 -0.147643 -0.627995 0.592869 0.337913 -0.176446 -0.152958 0.489982 -0.162707 -0.217257 0.706256 -0.254869 0.192461 0.541468 -0.492612 0.458085 -0.100065 -0.00421726 0.988419 -0.370923 0.223721 0.134546 -0.0202754 1.04937 0.438604 0.320456 -1.16698 -0.227925 0.269558 -0.35612 0.782328 -0.466187 -0.454142 -0.952355 0.0328818 -0.464873 0.261946 0.575643 -0.415989 0.264735 -0.197846 -0.0417171 -0.946911 0.263237 0.405586 0.813911 -0.23756 0.0457371 -0.0638314 -0.442452 -0.555354 -0.864411 -0.227593 0.211981 0.535283 0.918435 0.371375 -0.244511 0.957693 0.188289 -0.177693 0.464349 0.0301845 0.247235
aircraft 0.377312 0.545954 0.0172484 -0.595757 0.789989 1.20617 0.019137 1.21587 0.379621 -0.628275 -0.88355 0.00917594 -0.0899353 0.163454 0.440044 0.960723 0.643239 0.768941 -0.120024 0.0367997 -0.0109077 -0.345991 0.204453 -0.0605845 -0.552031 -0.36494 0.147025 0.227676 -0.0880917 0.172165 -0.204911 0.676868 -0.735349 -0.026113 0.253637 -0.417532 -0.0612704 0.144366 0.0514303 0.616184 0.341301 0.13456 -1.32799 0.0326557 0.513297 -0.509147 0.40141 -0.354455 0.412467 -1.52876 0.245157 -0.58234 0.413022 0.302194 0.208271 0.641167 -0.905552 -0.180336 -1.16232 -0.206368 0.102226 0.0882358 -0.85443 -0.10403 0.136568 -0.863999 -0.980808 -0.818382 -0.562244 0.070327 0.475683 1.29171 -0.00854724 -1.03541 0.0991975 0.0809017 0.136653 -0.0284281 0.366276 -0.178082
airplane 0.384708 -0.129431 0.220825 -0.780195 0.269595 0.286536 0.133029 0.563703 -0.634366 0.0236628 0.0212283 -0.295153 -0.380702 -0.24946 0.358795 0.996906 0.145 0.259492 0.58968 0.0900403 -0.123844 -0.0403417 0.0137547 -0.272949 -0.86361 0.281584 -0.164968 0.178523 -0.296503 0.185804 -0.431069 0.226866 0.161428 0.0481419 -0.233834 0.0958667 0.266024 -0.109477 -0.721288 0.828526 0.00253902 0.736526 -0.611663 -0.317745 0.00196475 -0.833424 0.475248 -0.571489 -0.313008 -0.260004 0.186566 -0.519759 0.272541 0.0792565 0.120837 0.39394 0.27992 -0.557011 -0.00975889 -0.413307 0.818196 -0.0540647 0.162619 -0.423631 -0.701177 -0.436447 -0.0250518 0.065865 0.968147 -0.230677 0.255824 0.0404534 0.155692 0.593346 0.816907 -0.0219162 -0.463678 -0.115204 -0.577664 0.306483
airport 1.02443 0.517702 -0.523018 -0.735532 0.217321 0.0959128 -0.479641 0.519494 -0.39089 -0.626489 -0.29555 1.04047 -0.795857 0.803841 -0.185486 -0.214306 0.470443 -0.398552 -0.440771 0.355364 -0.539559 0.119031 -0.818165 0.567627 -0.596012 0.00217401 -0.125387 0.446771 0.145753 -0.198617 -0.0182611 -0.448315 -0.45962 -0.505383 -0.0604236 -0.0578093 0.412103 -0.102262 0.304791 1.09979 0.123817 0.564276 -1.07429 0.79769 0.049729 -0.584922 1.05105 0.133603 -0.477705 -0.691047 0.451653 0.070429 -0.0339642 0.660096 -0.143573 -0.129023 0.218695 -1.12126 -0.536842 -0.22287 0.630259 0.217631 0.470382 -0.0251604 -0.716889 0.577027 -0.211847 -0.72213 -0.264965 -0.467864 -0.022902 0.330256 0.272236 0.271197 0.276347 0.373747 -0.457934 -0.380515 -0.887098 0.257606
airship 0.0516929 0.627443 0.231115 -0.438805 0.68513 -0.929417 -0.169872 -0.224942 -1.49551 1.04512 0.444926 -1.08486 0.174303 -0.519899 -0.00586061 0.172638 -0.976782 0.56355 -0.117137 -0.216404 -0.116018 0.246316 -0.678169 0.253564 -0.305126 1.06907 -0.0148481 0.397664 0.545918 -0.502994 -0.642114 -0.604551 0.396524 -0.919306 0.888671 -0.882291 -0.377578 0.433798 -0.304924 -0.294198 -0.833149 -0.345453 -0.861351 -0.399003 0.266471 0.109951 -0.0599556 -0.482568 1.43459 -0.056377 -0.256844 -0.96856 -0.0239346 0.437455 0.408388 0.646661 0.0919367 -0.850694 0.379871 0.949688 -0.412706 0.346434 -0.725088 0.148985 -0.239114 -0.656464 -0.446433 0.164465 0.0323993 -0.434521 0.0921129 1.5822 -0.0428423 0.384955 0.79676 -0.690814 0.429348 0.439975 -0.0156057 0.16518
aisle -0.308637 0.151878 -0.298025 -1.0173 0.236061 1.27918 0.00312069 -0.672425 -0.37101 -0.253062 0.59497 0.435354 0.00786148 -0.611482 -0.8478 0.602507 0.35699 0.188058 -0.446531 -0.451044 -0.276016 -0.0202101 -0.861145 -0.878288 1.22189 -0.924354 -0.355231 0.463618 -0.171183 -0.215892 -0.563905 -0.693849 0.356699 0.139845 0.134273 0.2284 0.303625 -0.137195 1.09208 -0.468501 0.488507 0.549069 0.779194 -0.433301 -0.325344 0.526447 0.157852 1.24768 -0.515235 0.634012 -0.0363196 -0.7787 0.80246 -0.0875418 0.0207358 0.12765 0.852842 -0.292716 0.307356 0.661557 0.769566 1.00276 0.643009 0.769372 0.273832 0.464673 0.281598 0.608686 -0.372928 -0.245253 -0.480821 0.454253 0.101338 -0.157267 -0.869514 0.708061 0.9526 -0.865659 -0.367581 -0.0185089
alarm 0.105924 -0.135243 0.0425602 -0.31162 0.055752 -0.139208 0.0144047 0.171248 -0.763348 -0.588512 0.932927 -0.0348412 -0.608696 -0.523114 -0.162573 0.813155 -0.145255 0.459628 -0.118647 -0.647311 0.746851 0.24528 -0.696107 -1.07583 -0.576844 1.2245 -0.238494 0.165047 0.134064 -0.827468 -0.723119 0.0512188 -0.0904721 -0.67821 0.139204 -0.408531 0.416558 -0.561984 0.285351 0.462251 -0.345099 0.355719 0.126263 -0.359953 0.79484 -0.189915 -0.395238 -1.02964 -0.311936 -0.213838 -0.669709 -0.43885 -0.279302 -0.430408 -0.30934 0.0495068 0.0501823 -0.0775307 -0.0271075 1.49926 0.000493735 0.161864 -0.111813 0.70706 -0.453595 -0.0444519 0.288906 -0.183897 0.395976 -0.275328 -0.193484 0.634361 0.2191 0.755334 0.605299 0.80975 0.0372794 0.807208 0.124601 -0.338211
albert -0.819681 0.588504 0.455494 0.0340035 0.264169 -0.19468 1.01517 0.497217 0.313811 0.147336 0.580128 0.541981 -2.05573 0.86628 1.37865 -0.793645 0.746334 -0.982367 0.0513912 -0.508227 0.678343 -0.0803033 -0.0267344 -0.0613927 -0.119267 -0.307442 0.692612 -0.136706 -0.00946359 -0.00734949 0.137683 0.12881 -0.433162 0.178933 -0.900588 0.588931 0.2858 0.12211 -0.653512 0.877832 -0.32366 0.0289467 -0.985206 -0.216875 0.329321 0.110613 0.156242 -0.167766 0.0241134 0.618692 0.188223 -0.172803 0.340593 0.367782 0.0690269 -0.814252 0.431655 0.230964 0.0824722 -0.213967 0.841742 -0.328293 0.135543 -0.802732 -0.235668 -0.217369 0.180736 -0.656192 -0.590213 0.0893615 -0.611359 -0.475276 -0.127176 0.277191 -0.481025 -0.41669 -0.926422 0.55592 -1.30382 0.116892
alcohol 0.178788 -0.550289 0.814782 -0.424904 0.308146 -1.36046 0.465548 0.371059 0.286435 -0.313985 0.269776 0.688513 0.614117 -0.780693 0.172588 0.185333 0.0216045 0.417287 -0.124945 0.256666 0.0213225 0.0758591 0.61494 -0.565735 -0.77156 0.400074 0.296249 0.315257 -0.101572 -0.38635 -1.10567 -0.215219 -0.202613 0.472683 0.0724124 -0.46017 1.08928 -0.60295 0.701007 0.584379 -0.28119 0.25619 -0.0878718 -0.0175199 -0.21226 0.206791 -0.325735 -0.85513 -0.271099 -0.645097 0.139492 -0.286667 -0.224568 -0.169872 -0.117839 0.00991816 -0.288912 -0.406444 -0.947735 0.291296 -0.316242 -0.42645 -0.118253 0.799678 -0.155366 0.0180625 -0.29008 0.732587 -0.507764 0.734153 0.177029 0.390488 -0.142866 -0.399033 -0.914446 1.17759 0.153429 0.656461 -0.635691 0.250492
algebra 1.08302 0.96983 0.483946 0.50509 0.0243307 -0.371208 0.18617 0.375401 1.63918 -0.758464 -0.0792538 0.481692 -0.460888 0.281662 -0.268534 0.789017 -0.0393594 -0.208995 0.125212 -0.642622 1.64674 -0.231435 -0.580886 -0.2342 -0.113046 -0.457229 0.187338 0.738774 0.237861 0.289116 -0.137107 0.701788 -0.00492248 -0.585337 0.297693 0.544272 0.523107 -0.226182 0.569642 0.991847 -0.854485 0.268991 0.0980733 -0.453933 -0.234563 0.784401 -0.747391 -0.0233243 -1.01997 0.0414023 -0.807951 -0.178699 -0.093546 0.337884 0.266427 0.92648 -0.303758 -0.358215 -0.141381 -0.542009 -0.135393 0.376009 -0.00144428 1.18233 0.540431 -0.12151 0.295655 0.181249 -0.587215 0.855573 1.3613 0.491347 -0.635886 0.568877 -0.57008 -0.440977 1.01784 0.242436 -0.153654 -0.229256
algebraic 0.888458 0.57395 -0.0967901 0.271032 -0.479857 -0.803934 0.287231 -0.211582 1.14879 -0.824791 -0.951944 0.670728 -0.386725 -0.241099 0.179583 0.777728 -0.220116 -0.452597 -0.0831465 -0.901446 0.746221 -0.645433 -0.241044 -0.711051 -0.628552 1.30091 0.361142 0.153849 1.04124 0.203423 -1.25812 0.374724 0.308996 0.631145 -0.427537 -0.372008 0.476983 -0.465058 -0.107123 -0.383703 -1.08417 0.642329 0.0107147 0.491242 -0.963457 -0.25882 -0.165452 -0.786934 -0.891316 0.73545 -0.780563 -0.540466 0.342847 -0.920468 0.337363 0.206156 0.293066 -0.354549 -0.270455 0.59423 0.76818 -0.169921 0.0366402 0.519369 0.0248832 0.754573 -0.280093 0.11056 -0.28977 1.11321 0.983047 0.347423 -0.408956 -0.348851 -0.570059 -0.137962 0.324779 1.28135 -0.335167 -0.0193455
algebras 0.386173 0.00316763 -0.902061 0.7134 0.186874 -0.288989 -0.263984 1.07568 1.26229 0.561471 -0.6272 1.3042 0.243582 0.745654 0.383803 0.318807 -0.648551 -0.482604 -0.975969 0.338578 0.0401754 -0.221588 -0.837844 -0.90142 -0.350536 0.561034 -0.540441 0.753391 0.448559 0.600565 0.582079 0.372068 0.12278 1.03014 0.672908 -0.856325 0.642502 -0.405119 0.773027 -0.437793 -0.301284 0.221961 0.416031 -0.542844 -0.221851 1.19628 -0.885807 0.80908 -0.64181 0.148526 -0.790855 -0.169254 -0.473768 -0.216616 1.50138 -0.0480035 -1.00588 -0.433084 -0.224206 -0.393581 -0.73257 0.192719 0.58608 0.929483 1.12403 0.553406 -0.394342 -0.270915 0.668411 0.073119 1.22372 -0.224978 0.130162 0.478805 -0.847744 -0.555189 -0.25557 0.752562 -0.539011 0.157074
algorithm 0.668661 -0.125554 0.262764 -0.0129493 0.276135 -0.0899476 -0.194858 0.23133 0.219422 0.66488 0.544111 -0.479058 0.00918904 0.0390165 -0.0715314 0.151145 0.291925 -0.328545 0.0542152 -1.27983 -0.353936 0.197488 0.369763 -0.314123 0.470473 0.357905 -0.240737 -0.00807401 0.430524 0.781698 -1.04684 1.07133 -0.371546 1.19801 -0.395463 -0.632979 0.323773 -0.409175 0.800778 0.183521 -0.0129473 -0.0339411 -0.419252 0.629824 0.0962623 -0.14436 -1.02333 -0.621905 -0.672463 0.26445 0.362399 0.158575 0.131756 0.435026 -0.45926 0.563827 -0.307815 -0.215262 0.0870536 0.95681 -0.0768055 0.0711101 -0.117887 0.4274 0.327627 0.752272 -0.272559 0.811705 -0.416504 0.672909 0.623869 0.15209 -0.322448 -0.0948224 -0.255028 0.369227 0.513469 -0.322156 -0.17778 -0.289759
alien 0.849398 0.74965 0.173113 -0.482345 0.721694 0.454682 -0.63798 -0.376424 0.139835 0.00524035 0.530518 -1.11947 -0.0445788 -0.0972386 0.51914 0.337236 -0.450035 0.0933526 1.14635 -0.843485 0.560518 -0.0033185 0.584049 0.317377 0.0340403 -0.314789 0.0479593 0.67658 0.274284 -0.333325 -0.180898 0.641503 0.479145 0.674778 0.5655 -0.269405 0.0802246 -0.444468 0.279882 -0.121141 0.0348681 -0.204111 -0.49772 0.392476 0.569594 0.718066 -0.583502 0.240489 -0.0735203 0.151656 -0.495439 -0.108608 -0.0114948 0.0412192 -0.302997 -0.0778572 -0.193008 -0.531246 -0.779811 0.617257 0.215636 0.0852332 0.93556 -0.144078 0.318716 -0.788558 -0.519263 -0.0906772 -0.293579 0.0297191 -0.385685 0.484638 -0.287836 -0.175409 0.145481 -0.179623 0.45239 0.456139 -0.266924 -0.323137
allergic -0.0267131 -0.991883 -0.619584 -0.186884 -0.63956 -0.105203 -0.696847 -0.370637 -0.478509 -0.132872 1.11404 0.750225 1.15409 0.450426 0.525051 0.447802 -0.468114 -0.0382639 -0.0678434 -1.72681 0.14011 -0.0726099 -0.133515 1.22663 -0.332218 0.345171 -0.406998 0.132022 -0.512252 0.279788 0.033394 -0.155521 -0.376137 -0.300419 -0.42639 -0.500969 0.58932 0.922446 0.975706 -0.317519 -0.76546 0.0514692 -0.514088 0.560012 0.562394 -0.457262 0.136157 0.146712 -0.428735 -0.436906 0.701721 -0.214752 -0.435301 -0.226763 0.192861 -0.328132 0.70878 0.739545 -0.128503 -0.0886418 -0.306792 0.594236 0.353025 -0.331224 -0.604472 -0.355105 -0.573681 0.132993 0.178226 -0.172536 0.405604 0.00919825 -0.427671 0.444187 0.662514 -0.631642 0.947168 0.632128 -0.573228 -0.232131
alleviated 0.578069 -0.498012 -0.350641 -1.16926 -0.573741 0.676644 0.801139 0.768372 -0.407714 0.0797732 -0.0516066 -1.34567 0.771253 -1.07619 0.0187623 -0.452509 -0.0212478 -0.731057 0.00282651 -0.226364 0.367602 1.02659 -0.274161 -0.879914 0.854443 -0.0281949 -1.09381 -0.427561 -0.983847 0.0941429 -0.627175 -0.112545 0.536823 0.83612 0.445215 0.231284 0.757569 0.220068 0.314127 0.228478 -0.826651 0.10115 0.0306824 -0.850243 0.242572 0.454614 0.887714 0.0345228 0.22181 -0.548043 0.807695 0.995883 0.260688 -0.217291 -0.528888 0.12952 1.10596 1.02389 -0.595354 0.594226 0.458875 -0.488824 -0.37501 1.56184 0.961106 0.335992 1.31804 0.13499 0.310277 0.613312 -0.272183 -1.20941 1.56113 0.708127 -0.348499 -0.232571 -0.409516 0.45733 -0.646488 0.0289674
alley 0.684118 -0.116493 -0.201866 0.304976 -0.391236 -0.181603 -0.315309 0.465669 0.077165 0.555773 1.31626 -0.815213 -0.350394 -0.0789157 -0.0334387 0.386715 0.282831 0.143151 0.00518294 0.784876 0.0747619 -0.173945 0.882268 -1.13479 -0.512616 -0.473157 -1.04948 -0.841288 0.912109 -0.179387 0.588846 0.561765 0.18082 1.20197 -0.00544755 -0.0932045 -0.4706 1.09614 0.000658683 0.608966 -0.551871 0.0295276 -0.521759 -0.48975 -0.100991 -0.0379194 0.130669 0.6021 0.0285782 -0.920517 -0.834211 0.160038 -0.385952 0.201167 0.494322 -0.710624 0.556275 0.277933 -0.0939588 -0.54452 0.757913 0.684183 0.489836 0.409591 0.180441 0.0807516 -0.252884 -0.104049 -0.198497 0.102407 0.881357 -0.918329 0.679977 -0.2486 0.078715 -0.877752 -0.622114 0.00148496 0.089166 -0.855011
allow 0.049668 0.358784 0.460212 -0.161329 0.545875 0.0847123 -0.478293 0.558695 -0.103901 -0.292563 0.327101 -0.389825 0.768413 -0.168639 0.4053 0.523248 0.0974457 0.0455023 -0.694154 -0.379848 -0.115912 0.53824 -0.0763382 0.00766301 -0.260838 -0.179376 0.60325 -0.206542 0.125315 0.886441 -0.27889 0.789758 -0.157635 0.133401 -0.226668 -0.633146 -0.143254 0.213141 -0.035295 0.821272 0.205019 0.102593 -0.368238 -0.10902 -0.245378 -0.493846 -0.386698 0.00460502 -0.505517 -0.538908 -0.35184 0.0418487 0.636586 0.0722517 -0.322945 0.182657 -0.044888 -0.324507 -0.598033 0.380326 -0.239369 0.267603 -0.149662 0.092902 0.373964 0.0193918 -0.224652 0.0359268 -0.895498 0.408678 0.878997 0.211979 0.0183329 -0.455114 0.445529 0.319408 -0.349096 0.397468 0.107309 0.39085
alloy 1.70399 0.575137 -0.0411929 -0.544047 0.804361 0.391155 0.237694 0.200228 -0.40646 -0.308673 0.238162 -0.954423 0.774082 -0.508974 -0.00389172 -0.133281 -0.199071 0.767997 -0.244016 0.362748 -0.652634 -0.141017 -0.185784 -0.719913 0.353577 0.314297 -0.989997 0.300681 0.290532 0.412548 -0.961445 0.752647 0.800545 0.557755 -0.187453 0.274525 1.09855 -0.931747 0.583418 -0.360421 -0.545982 0.165518 -0.416404 0.346299 0.0506405 0.0430744 -0.12855 -0.174198 -0.621126 -0.225782 -0.059966 -0.274884 -0.191745 -0.530015 0.0610588 -0.48509 -0.156207 -0.27233 -0.488404 -0.00886831 -1.14987 -0.216716 0.0985676 0.453876 -0.490627 -0.591249 -0.179987 -0.846383 -0.515518 0.494959 1.54185 -0.0977384 -0.0180797 0.412682 -0.0864486 -0.371246 0.419422 0.904182 0.142521 -0.55685
alphabet -0.311684 1.30212 1.15135 -0.119836 0.0589525 0.404911 1.49018 0.971409 -0.259872 -0.265859 0.465804 0.379391 0.237759 -0.694492 -0.425618 1.3744 -0.185318 0.643711 0.740037 -0.511265 -0.253358 0.672585 0.140419 -0.489468 0.0312993 -0.556696 0.467636 0.143432 0.307922 0.115735 -0.509044 0.277496 -0.764141 -0.417396 0.0732822 0.41182 0.394465 -0.434856 -0.258523 0.805673 -0.124556 0.452977 0.173946 -0.366014 0.0963302 -0.167182 -0.228259 -0.349559 -0.518831 0.31651 -0.502729 0.15392 -0.741282 0.232105 -0.232154 0.31142 -1.08147 -0.195357 -0.226353 -0.904889 0.196582 -0.689949 -0.753268 -0.586369 -0.278464 0.216616 -0.716083 0.541966 -0.188384 -0.32048 0.256517 -1.13811 -0.663933 -0.964327 -1.4788 0.464297 0.474388 0.205544 -0.100028 0.503864
alt 0.165625 0.188992 0.466363 -0.690296 0.284241 0.129905 0.0798687 -0.497518 -0.327767 0.0789333 0.165201 -0.875655 -0.0300704 0.0937555 -0.0754023 -0.68242 -0.229801 -1.23901 0.00126937 0.979323 -0.268248 0.341477 -0.268477 -0.345129 0.611948 -0.476039 -0.17379 0.635166 0.703321 0.810599 0.0823188 -0.690748 -0.13039 -0.0255677 -0.600789 -0.41588 -0.342883 -0.831097 -0.184512 0.376377 0.404064 0.365259 -0.0698393 0.759884 -0.077709 0.212274 -0.0773818 -0.125329 0.0208069 -0.415282 0.0179204 0.126099 -0.856236 -0.297293 0.0219895 -0.707835 0.62377 -0.402913 0.164147 -0.59109 1.15486 0.185545 0.174188 0.590836 -1.02502 0.343798 -0.0841425 0.0352298 -0.00427118 -0.562969 -0.952449 0.421742 -0.212738 -0.056067 -0.252891 0.319091 -0.268833 -0.461516 0.112189 0.512099
alter -0.121806 -0.235414 0.165148 -0.00545552 -0.180215 -0.195119 -0.262168 0.414654 -0.190838 -0.702227 0.00541021 -0.507048 0.637928 -0.170746 -0.377729 0.142299 0.323914 -0.0420459 -0.129242 -1.29515 -0.333428 0.236235 0.392523 0.554876 -0.0374016 0.342061 -0.0981944 0.128878 -0.301299 0.328559 -0.319 0.348311 -0.263013 0.11169 -0.23609 -0.00889463 0.0551134 -0.109228 0.586683 -0.134931 0.10461 -0.174859 -0.349297 -0.0585873 -0.576086 -0.317619 -0.811027 -0.00485507 0.0375316 -0.467644 0.284603 0.104178 0.163991 0.46209 0.100066 0.0490321 0.347459 0.0467068 -0.636974 -0.158057 0.575455 -0.735761 0.535498 0.668333 1.11813 0.0998026 -0.128115 0.247489 0.0838143 0.292523 0.768965 -0.537172 0.251866 0.0804188 -0.529443 0.249767 0.565084 0.00592452 -0.280466 1.22867
alternative 0.475712 0.178957 0.879144 -0.571227 0.155996 0.328443 -0.765794 0.946022 0.898595 -0.710566 0.156769 -0.180386 1.23892 -0.301902 -0.113806 -0.205523 -0.125649 -0.407774 0.14038 0.283474 0.246236 0.675298 -0.333458 0.308778 -0.152422 0.467737 0.2452 0.873275 -0.00241718 -0.288978 0.245172 0.135521 0.324186 -0.0113674 -0.513835 -0.273983 0.0904357 -1.17679 -0.387803 0.542148 -0.134975 0.389326 -0.288247 -0.290848 -0.527693 0.799971 -0.524541 -0.492531 0.0826889 -0.381795 0.474894 -0.0230746 0.918401 0.0301389 -0.141778 0.582413 -0.412772 -0.0671762 -0.747776 0.122808 0.995623 0.299065 0.958 0.451866 -0.617885 -0.404669 -0.543699 0.251262 -0.872104 0.0934947 0.0309827 0.0973809 -0.542092 -0.943934 -1.27195 1.06621 0.00364915 0.249399 -0.407944 -0.512217
aluminum -0.0564943 -0.0763218 -0.0503063 -1.5287 -0.262493 -0.226261 0.860004 -0.158858 -0.0812224 -0.482582 0.111479 -0.28721 1.30578 0.244342 0.317349 -0.164176 0.03312 0.0830755 0.740623 -0.225986 0.283361 -0.340158 0.0189048 0.621145 -0.350506 -0.287483 0.949352 0.0898036 -1.13623 -0.884836 0.627495 0.199002 0.126229 -0.116192 -0.5454 0.454454 -0.0837317 0.838498 -0.333525 0.786561 0.377124 0.0790032 -0.926192 0.697418 0.737639 0.967504 0.0545828 -0.064562 0.0394284 -0.485482 0.681598 0.205043 0.563855 0.30703 -0.0152032 -0.43664 0.015707 -0.274329 0.763163 -1.21806 -0.614578 -0.307824 -0.566139 -0.596871 -0.382251 0.393199 -1.1927 0.0031248 -0.585257 -0.439298 0.566005 -0.871185 -0.591876 -0.560404 0.379922 1.15179 0.362823 -0.807596 -0.520875 -0.659116
amateur 0.759328 -0.244381 1.01704 0.384564 0.859093 -0.161917 0.448484 0.0179384 0.279766 -0.0612083 0.692561 -0.13589 0.795132 0.359579 0.378171 0.466262 0.249994 -0.188041 1.01733 0.0218329 -0.343149 -0.834028 -0.662916 -0.264778 -1.33249 -0.481302 -0.483845 0.29322 0.325272 -0.0652128 -0.401116 0.348629 0.379164 -0.214088 -0.442613 -0.58321 1.22009 -0.640644 -0.28625 0.471649 0.564236 0.259915 -0.13306 -0.157288 -0.257975 0.771604 -0.213124 -0.709595 0.352694 -0.670951 0.450456 -0.639882 -0.0529845 0.644201 -0.00584911 -1.09093 0.261638 -0.285847 -0.238169 0.0394728 0.28097 -0.591826 -0.171726 0.295967 0.686943 -0.138188 -0.640135 0.16813 -1.21202 0.443995 -0.082153 0.63958 -0.462101 0.0527956 -0.332051 0.241514 0.259734 -0.167315 0.689407 -0.907489
ambitious -0.0419855 0.863411 0.291603 -0.302866 -0.64524 -0.515661 -0.0690669 0.134866 0.123022 -0.869136 0.720733 0.659751 0.569708 -0.108932 0.406621 -0.267459 -0.254333 -0.51396 -0.270654 -0.596486 -0.429735 0.101678 -0.0640922 0.112794 0.43082 -0.248278 -0.239123 0.375929 0.41829 -0.00921667 0.621216 -0.278791 -0.787967 -0.0822971 -0.400737 -0.432515 -0.190685 0.348152 0.549389 -0.15793 0.677837 0.0121004 -0.673634 0.211876 0.686065 0.0242682 0.126984 0.031805 -0.119993 -0.272856 0.92663 -0.196223 0.224805 -0.193419 0.339365 0.269068 -0.572448 0.413053 -0.0170665 0.574307 -0.178197 0.00377224 -0.335384 -0.285291 -0.147725 0.136192 0.363836 0.151756 0.0360812 0.461044 -0.374998 -0.355126 -0.604711 -0.146066 -0.822641 -0.522123 -0.35792 0.677588 -0.108551 -0.0368529
american 0.129175 0.636486 0.82452 -0.529228 0.292835 0.550628 0.333962 0.622904 0.230068 0.207718 0.00819345 0.976102 -1.11151 0.266324 0.325302 -0.249074 0.551874 0.649412 1.20086 0.660857 -0.0941817 -0.605912 -0.774099 0.517291 -0.733101 -0.108905 1.28198 -0.445251 -0.286005 0.637849 -0.251691 0.672831 -0.397555 0.26093 -0.98044 -0.293038 -0.204025 -0.835701 -0.984003 0.669492 0.185573 0.0919788 -0.566829 -0.0796058 -0.933876 0.383735 -0.117928 -0.394457 -0.0247304 -0.446846 0.644014 -0.625573 0.611659 0.389043 -1.02175 0.00983785 -0.474515 -0.265535 -0.830676 -0.66146 0.722928 0.457733 0.140029 -0.883851 -1.14422 -0.551116 0.0889772 0.424535 -0.413133 0.301498 0.463661 1.05221 -0.858942 -0.451838 0.255513 -0.40661 -1.11473 0.770197 -0.110089 -0.106965
americanize -0.948787 -0.763646 -0.762263 -0.405174 -0.532987 0.496091 -0.621897 -0.463019 -0.327762 -0.0395697 -0.138122 -0.114066 -0.988824 -1.01416 -1.16437 0.233598 0.00824624 -0.756028 -0.0166625 -0.285149 -1.02739 -0.945969 -0.630984 0.504483 1.31586 1.56145 -0.129487 0.132645 -0.438981 -1.40522 -0.328745 -0.0378661 0.823277 0.611413 0.676014 0.42618 0.470398 0.464243 -0.295614 0.0249485 0.289197 -0.524537 -0.242748 1.68273 0.204271 -0.323501 0.111975 0.333183 -0.622004 0.0132641 1.32804 0.798796 0.400821 -0.431008 0.467534 -1.09106 -0.0839267 -0.182219 -0.526379 -0.848931 -0.043881 1.21198 -0.180123 -0.575978 1.01036 -0.45795 -1.5169 0.0176796 0.931808 -1.07317 0.553526 -0.496909 -0.568722 -0.00253686 0.973228 0.704907 0.760069 0.290553 -0.980762 -0.0749943
